{"learner":{"attributes":{"best_iteration":"99","best_ntree_limit":"100","scikit_learn":"{\"n_estimators\": 100, \"objective\": \"reg:squarederror\", \"max_depth\": 3, \"max_leaves\": null, \"max_bin\": null, \"grow_policy\": null, \"learning_rate\": 0.1, \"verbosity\": null, \"booster\": null, \"tree_method\": null, \"gamma\": null, \"min_child_weight\": null, \"max_delta_step\": null, \"subsample\": 0.9, \"sampling_method\": null, \"colsample_bytree\": 0.9, \"colsample_bylevel\": null, \"colsample_bynode\": null, \"reg_alpha\": null, \"reg_lambda\": null, \"scale_pos_weight\": null, \"base_score\": null, \"missing\": NaN, \"num_parallel_tree\": null, \"random_state\": null, \"n_jobs\": null, \"monotone_constraints\": null, \"interaction_constraints\": null, \"importance_type\": null, \"gpu_id\": null, \"validate_parameters\": null, \"predictor\": null, \"enable_categorical\": false, \"feature_types\": null, \"max_cat_to_onehot\": null, \"max_cat_threshold\": null, \"eval_metric\": null, \"early_stopping_rounds\": null, \"callbacks\": null, \"_estimator_type\": \"regressor\"}"},"feature_names":["Hora","Día de Semana","Mes","Día del Año","Día del Mes","Semana del Año","Es Fin de Semana"],"feature_types":["int","int","int","int","int","int","int"],"gradient_booster":{"model":{"gbtree_model_param":{"num_parallel_tree":"1","num_trees":"100","size_leaf_vector":"0"},"tree_info":[0,0,0,0,0,0,0,0,0,0,0,0,0,0,0,0,0,0,0,0,0,0,0,0,0,0,0,0,0,0,0,0,0,0,0,0,0,0,0,0,0,0,0,0,0,0,0,0,0,0,0,0,0,0,0,0,0,0,0,0,0,0,0,0,0,0,0,0,0,0,0,0,0,0,0,0,0,0,0,0,0,0,0,0,0,0,0,0,0,0,0,0,0,0,0,0,0,0,0,0],"trees":[{"base_weights":[1.5066504E0,3.5653317E-1,3.016773E0,4.7623146E-1,1.4125617E-1,4.23751E0,6.091563E-1,4.2807132E-1,4.793438E0,1.1396233E-1,3.3768272E-1,5.151074E0,8.162309E-1,1.7476186E0,4.2639846E-1],"categories":[],"categories_nodes":[],"categories_segments":[],"categories_sizes":[],"default_left":[1,1,1,1,1,1,1,0,0,0,0,0,0,0,0],"id":0,"left_children":[1,3,5,7,9,11,13,-1,-1,-1,-1,-1,-1,-1,-1],"loss_changes":[6.2316925E5,5.2483926E3,4.559115E5,2.7213688E4,3.901682E2,3.2171562E5,1.0858268E4,0E0,0E0,0E0,0E0,0E0,0E0,0E0,0E0],"parents":[2147483647,0,0,1,1,2,2,3,3,4,4,5,5,6,6],"right_children":[2,4,6,8,10,12,14,-1,-1,-1,-1,-1,-1,-1,-1],"split_conditions":[1.25E1,7.65E1,4.5E0,7.55E1,1.315E2,2.15E1,3.55E1,4.2807132E-2,4.793438E-1,1.1396233E-2,3.3768274E-2,5.151074E-1,8.162309E-2,1.7476186E-1,4.2639848E-2],"split_indices":[0,3,1,3,3,0,3,0,0,0,0,0,0,0,0],"split_type":[0,0,0,0,0,0,0,0,0,0,0,0,0,0,0],"sum_hessian":[3.58799E5,2.03678E5,1.55121E5,1.30896E5,7.2782E4,1.02931E5,5.219E4,1.29453E5,1.443E3,6.3904E4,8.878E3,8.1238E4,2.1693E4,7.218E3,4.4972E4],"tree_param":{"num_deleted":"0","num_feature":"7","num_nodes":"15","size_leaf_vector":"0"}},{"base_weights":[1.355487E0,3.2072562E-1,2.7131307E0,4.2877728E-1,1.2699214E-1,3.80877E0,5.523692E-1,3.8551584E-1,4.3180923E0,7.248935E-2,2.2128312E-1,4.634117E0,7.1926165E-1,1.5836066E0,3.8640296E-1],"categories":[],"categories_nodes":[],"categories_segments":[],"categories_sizes":[],"default_left":[1,1,1,1,1,1,1,0,0,0,0,0,0,0,0],"id":1,"left_children":[1,3,5,7,9,11,13,-1,-1,-1,-1,-1,-1,-1,-1],"loss_changes":[5.0341562E5,4.2568203E3,3.6692588E5,2.1963494E4,3.7416846E2,2.6223788E5,8.924721E3,0E0,0E0,0E0,0E0,0E0,0E0,0E0,0E0],"parents":[2147483647,0,0,1,1,2,2,3,3,4,4,5,5,6,6],"right_children":[2,4,6,8,10,12,14,-1,-1,-1,-1,-1,-1,-1,-1],"split_conditions":[1.25E1,7.65E1,4.5E0,7.55E1,2.05E1,2.15E1,3.55E1,3.8551584E-2,4.3180925E-1,7.2489353E-3,2.2128312E-2,4.6341172E-1,7.192617E-2,1.5836066E-1,3.8640298E-2],"split_indices":[0,3,1,3,4,0,3,0,0,0,0,0,0,0,0],"split_type":[0,0,0,0,0,0,0,0,0,0,0,0,0,0,0],"sum_hessian":[3.58344E5,2.03354E5,1.5499E5,1.30544E5,7.281E4,1.02842E5,5.2148E4,1.29109E5,1.435E3,4.6141E4,2.6669E4,8.116E4,2.1682E4,7.228E3,4.492E4],"tree_param":{"num_deleted":"0","num_feature":"7","num_nodes":"15","size_leaf_vector":"0"}},{"base_weights":[1.2182153E0,2.876183E-1,2.4417555E0,3.7477663E-1,1.2110012E-1,3.4271278E0,4.9237877E-1,5.622583E-1,3.1907514E-1,1.00669965E-1,3.576974E-1,4.3736916E0,1.2306215E0,2.7511233E-1,1.1256719E0],"categories":[],"categories_nodes":[],"categories_segments":[],"categories_sizes":[],"default_left":[1,1,1,1,1,1,1,0,0,0,0,0,0,0,0],"id":2,"left_children":[1,3,5,7,9,11,13,-1,-1,-1,-1,-1,-1,-1,-1],"loss_changes":[4.085053E5,2.9575332E3,2.977147E5,1.3967402E3,3.384065E2,2.1404338E5,7.1601855E3,0E0,0E0,0E0,0E0,0E0,0E0,0E0,0E0],"parents":[2147483647,0,0,1,1,2,2,3,3,4,4,5,5,6,6],"right_children":[2,4,6,8,10,12,14,-1,-1,-1,-1,-1,-1,-1,-1],"split_conditions":[1.25E1,1.15E1,4.5E0,7.5E0,1.15E1,2.05E1,2.15E1,5.6225833E-2,3.1907514E-2,1.0066996E-2,3.5769742E-2,4.3736917E-1,1.2306215E-1,2.7511233E-2,1.1256719E-1],"split_indices":[0,5,1,4,0,0,4,0,0,0,0,0,0,0,0],"split_type":[0,0,0,0,0,0,0,0,0,0,0,0,0,0,0],"sum_hessian":[3.58771E5,2.03781E5,1.5499E5,1.33765E5,7.0016E4,1.0295E5,5.204E4,3.0637E4,1.03128E5,6.4452E4,5.564E3,7.1945E4,3.1005E4,3.8748E4,1.3292E4],"tree_param":{"num_deleted":"0","num_feature":"7","num_nodes":"15","size_leaf_vector":"0"}},{"base_weights":[1.0957897E0,2.5825444E-1,2.1978486E0,3.3679873E-1,1.0783163E-1,3.0871615E0,4.4387674E-1,4.9962792E-1,2.8835714E-1,7.9713054E-2,2.661458E-1,3.770899E0,5.297492E-1,2.47391E-1,1.017548E0],"categories":[],"categories_nodes":[],"categories_segments":[],"categories_sizes":[],"default_left":[1,1,1,1,1,1,1,0,0,0,0,0,0,0,0],"id":3,"left_children":[1,3,5,7,9,11,13,-1,-1,-1,-1,-1,-1,-1,-1],"loss_changes":[3.3081294E5,2.4059883E3,2.4140262E5,1.0551201E3,3.1096094E2,1.7956869E5,5.8689854E3,0E0,0E0,0E0,0E0,0E0,0E0,0E0,0E0],"parents":[2147483647,0,0,1,1,2,2,3,3,4,4,5,5,6,6],"right_children":[2,4,6,8,10,12,14,-1,-1,-1,-1,-1,-1,-1,-1],"split_conditions":[1.25E1,1.15E1,4.5E0,7.5E0,4.5E0,2.15E1,2.15E1,4.9962793E-2,2.8835714E-2,7.971305E-3,2.661458E-2,3.7708992E-1,5.297492E-2,2.47391E-2,1.017548E-1],"split_indices":[0,5,1,4,2,0,4,0,0,0,0,0,0,0,0],"split_type":[0,0,0,0,0,0,0,0,0,0,0,0,0,0,0],"sum_hessian":[3.58405E5,2.03643E5,1.54762E5,1.33785E5,6.9858E4,1.02693E5,5.2069E4,3.0673E4,1.03112E5,5.9323E4,1.0535E4,8.1029E4,2.1664E4,3.8786E4,1.3283E4],"tree_param":{"num_deleted":"0","num_feature":"7","num_nodes":"15","size_leaf_vector":"0"}},{"base_weights":[9.8796153E-1,2.3339982E-1,1.9792113E0,3.1359515E-1,8.894799E-2,2.7760706E0,4.0273696E-1,2.7461278E-1,3.8222773E0,6.5316714E-2,2.583689E-1,3.5674148E0,9.43034E-1,1.2928733E0,2.5918704E-1],"categories":[],"categories_nodes":[],"categories_segments":[],"categories_sizes":[],"default_left":[1,1,1,1,1,1,1,0,0,0,0,0,0,0,0],"id":4,"left_children":[1,3,5,7,9,11,13,-1,-1,-1,-1,-1,-1,-1,-1],"loss_changes":[2.6830372E5,2.359416E3,1.9476581E5,1.791205E4,2.9108728E2,1.4938281E5,6.651456E3,0E0,0E0,0E0,0E0,0E0,0E0,0E0,0E0],"parents":[2147483647,0,0,1,1,2,2,3,3,4,4,5,5,6,6],"right_children":[2,4,6,8,10,12,14,-1,-1,-1,-1,-1,-1,-1,-1],"split_conditions":[1.25E1,7.65E1,4.5E0,7.55E1,1.315E2,2.05E1,3.55E1,2.746128E-2,3.8222775E-1,6.5316716E-3,2.583689E-2,3.567415E-1,9.43034E-2,1.2928733E-1,2.5918705E-2],"split_indices":[0,3,1,3,3,0,3,0,0,0,0,0,0,0,0],"split_type":[0,0,0,0,0,0,0,0,0,0,0,0,0,0,0],"sum_hessian":[3.58714E5,2.03674E5,1.5504E5,1.30965E5,7.2709E4,1.02984E5,5.2056E4,1.29527E5,1.438E3,6.381E4,8.899E3,7.193E4,3.1054E4,7.228E3,4.4828E4],"tree_param":{"num_deleted":"0","num_feature":"7","num_nodes":"15","size_leaf_vector":"0"}},{"base_weights":[8.8698477E-1,2.0953758E-1,1.7778246E0,2.611508E-1,5.541547E-2,2.4965446E0,3.5795403E-1,4.226915E-1,2.2045094E-1,1.3788203E-2,2.165315E-1,3.0604525E0,3.789091E-1,2.5210777E-1,1.2810347E0],"categories":[],"categories_nodes":[],"categories_segments":[],"categories_sizes":[],"default_left":[1,1,1,1,1,1,1,0,0,0,0,0,0,0,0],"id":5,"left_children":[1,3,5,7,9,11,13,-1,-1,-1,-1,-1,-1,-1,-1],"loss_changes":[2.1656869E5,1.6215117E3,1.5818922E5,1.00389453E3,3.4298376E2,1.228985E5,5.0897944E3,0E0,0E0,0E0,0E0,0E0,0E0,0E0,0E0],"parents":[2147483647,0,0,1,1,2,2,3,3,4,4,5,5,6,6],"right_children":[2,4,6,8,10,12,14,-1,-1,-1,-1,-1,-1,-1,-1],"split_conditions":[1.25E1,3.5E0,4.5E0,7.5E0,4.5E0,2.15E1,1.55E1,4.226915E-2,2.2045095E-2,1.3788203E-3,2.1653151E-2,3.0604526E-1,3.789091E-2,2.5210777E-2,1.2810348E-1],"split_indices":[0,2,1,4,2,0,5,0,0,0,0,0,0,0,0],"split_type":[0,0,0,0,0,0,0,0,0,0,0,0,0,0,0],"sum_hessian":[3.58856E5,2.03843E5,1.55013E5,1.52704E5,5.1139E4,1.02917E5,5.2096E4,3.0729E4,1.21975E5,4.064E4,1.0499E4,8.1274E4,2.1643E4,4.6738E4,5.358E3],"tree_param":{"num_deleted":"0","num_feature":"7","num_nodes":"15","size_leaf_vector":"0"}},{"base_weights":[7.9908293E-1,2.3560701E-1,1.6746868E0,1.894474E-1,8.8384503E-1,2.356893E0,3.3571523E-1,4.2914173E-1,1.5203805E-1,3.92985E-3,2.0416203E0,3.1677766E0,7.3857343E-1,1.1177385E0,2.1001446E-1],"categories":[],"categories_nodes":[],"categories_segments":[],"categories_sizes":[],"default_left":[1,1,1,1,1,1,1,0,0,0,0,0,0,0,0],"id":6,"left_children":[1,3,5,7,9,11,13,-1,-1,-1,-1,-1,-1,-1,-1],"loss_changes":[1.7703877E5,6.5327637E3,1.2833959E5,1.8275215E3,1.4785021E4,1.2213972E5,4.6615884E3,0E0,0E0,0E0,0E0,0E0,0E0,0E0,0E0],"parents":[2147483647,0,0,1,1,2,2,3,3,4,4,5,5,6,6],"right_children":[2,4,6,8,10,12,14,-1,-1,-1,-1,-1,-1,-1,-1],"split_conditions":[1.35E1,1.25E1,4.5E0,3.85E1,7.15E1,2.05E1,3.55E1,4.2914174E-2,1.5203806E-2,3.9298504E-4,2.0416203E-1,3.1677768E-1,7.3857345E-2,1.1177385E-1,2.1001447E-2],"split_indices":[0,0,1,3,3,0,3,0,0,0,0,0,0,0,0],"split_type":[0,0,0,0,0,0,0,0,0,0,0,0,0,0,0],"sum_hessian":[3.58827E5,2.18328E5,1.40499E5,2.03816E5,1.4512E4,9.3076E4,4.7423E4,2.7514E4,1.76302E5,8.246E3,6.266E3,6.2006E4,3.107E4,6.566E3,4.0857E4],"tree_param":{"num_deleted":"0","num_feature":"7","num_nodes":"15","size_leaf_vector":"0"}},{"base_weights":[7.188906E-1,2.1275452E-1,1.5050169E0,1.7097062E-1,7.9321414E-1,2.1150594E0,3.0899343E-1,3.9228004E-1,1.3663113E-1,-1.8510023E-1,1.7607957E0,2.8405132E0,6.609204E-1,1.179947E-1,8.6984235E-1],"categories":[],"categories_nodes":[],"categories_segments":[],"categories_sizes":[],"default_left":[1,1,1,1,1,1,1,0,0,0,0,0,0,0,0],"id":7,"left_children":[1,3,5,7,9,11,13,-1,-1,-1,-1,-1,-1,-1,-1],"loss_changes":[1.4270578E5,5.2917188E3,1.0249341E5,1.5467495E3,1.3868946E4,9.813225E4,5.0828096E3,0E0,0E0,0E0,0E0,0E0,0E0,0E0,0E0],"parents":[2147483647,0,0,1,1,2,2,3,3,4,4,5,5,6,6],"right_children":[2,4,6,8,10,12,14,-1,-1,-1,-1,-1,-1,-1,-1],"split_conditions":[1.35E1,1.25E1,4.5E0,3.85E1,1.45E1,2.05E1,2.15E1,3.9228003E-2,1.3663113E-2,-1.8510023E-2,1.7607957E-1,2.8405133E-1,6.609204E-2,1.17994705E-2,8.698424E-2],"split_indices":[0,0,1,3,4,0,4,0,0,0,0,0,0,0,0],"split_type":[0,0,0,0,0,0,0,0,0,0,0,0,0,0,0],"sum_hessian":[3.58659E5,2.18185E5,1.40474E5,2.03535E5,1.465E4,9.3025E4,4.7449E4,2.7338E4,1.76197E5,7.285E3,7.365E3,6.2062E4,3.0963E4,3.5396E4,1.2053E4],"tree_param":{"num_deleted":"0","num_feature":"7","num_nodes":"15","size_leaf_vector":"0"}},{"base_weights":[6.485444E-1,1.9209415E-1,1.3587848E0,1.5406781E-1,7.2213715E-1,1.9107071E0,2.7855214E-1,1.9859993E-1,2.1295011E-2,-7.5946555E-2,1.7821935E0,2.431594E0,2.0301372E-1,1.7146581E-1,1.2125281E0],"categories":[],"categories_nodes":[],"categories_segments":[],"categories_sizes":[],"default_left":[1,1,1,1,1,1,1,0,0,0,0,0,0,0,0],"id":8,"left_children":[1,3,5,7,9,11,13,-1,-1,-1,-1,-1,-1,-1,-1],"loss_changes":[1.1630234E5,4.4017686E3,8.367978E4,1.2048589E3,1.236801E4,8.262922E4,4.746854E3,0E0,0E0,0E0,0E0,0E0,0E0,0E0,0E0],"parents":[2147483647,0,0,1,1,2,2,3,3,4,4,5,5,6,6],"right_children":[2,4,6,8,10,12,14,-1,-1,-1,-1,-1,-1,-1,-1],"split_conditions":[1.35E1,1.25E1,4.5E0,3.5E0,1.05E1,2.15E1,1.55E1,1.9859994E-2,2.1295012E-3,-7.5946557E-3,1.7821936E-1,2.431594E-1,2.0301372E-2,1.7146582E-2,1.2125281E-1],"split_indices":[0,0,1,2,5,0,5,0,0,0,0,0,0,0,0],"split_type":[0,0,0,0,0,0,0,0,0,0,0,0,0,0,0],"sum_hessian":[3.58748E5,2.18394E5,1.40354E5,2.03776E5,1.4618E4,9.2892E4,4.7462E4,1.52595E5,5.1181E4,8.34E3,6.278E3,7.118E4,2.1712E4,4.2581E4,4.881E3],"tree_param":{"num_deleted":"0","num_feature":"7","num_nodes":"15","size_leaf_vector":"0"}},{"base_weights":[5.8055156E-1,1.717439E-1,1.2166225E0,1.382605E-1,6.42704E-1,1.7096283E0,2.4859037E-1,2.7920094E-1,1.0223094E-1,-2.4102946E-1,1.5179825E0,2.315887E0,4.9768102E-1,7.87001E-2,7.482669E-1],"categories":[],"categories_nodes":[],"categories_segments":[],"categories_sizes":[],"default_left":[1,1,1,1,1,1,1,0,0,0,0,0,0,0,0],"id":9,"left_children":[1,3,5,7,9,11,13,-1,-1,-1,-1,-1,-1,-1,-1],"loss_changes":[9.335131E4,3.446207E3,6.7033E4,1.0360857E3,1.1220943E4,6.837725E4,4.0234805E3,0E0,0E0,0E0,0E0,0E0,0E0,0E0,0E0],"parents":[2147483647,0,0,1,1,2,2,3,3,4,4,5,5,6,6],"right_children":[2,4,6,8,10,12,14,-1,-1,-1,-1,-1,-1,-1,-1],"split_conditions":[1.35E1,1.25E1,4.5E0,6.5E0,1.45E1,2.05E1,2.15E1,2.7920095E-2,1.0223093E-2,-2.4102947E-2,1.5179825E-1,2.315887E-1,4.97681E-2,7.87001E-3,7.482669E-2],"split_indices":[0,0,1,5,4,0,4,0,0,0,0,0,0,0,0],"split_type":[0,0,0,0,0,0,0,0,0,0,0,0,0,0,0],"sum_hessian":[3.59001E5,2.18543E5,1.40458E5,2.04038E5,1.4505E4,9.3062E4,4.7396E4,4.1539E4,1.62499E5,7.218E3,7.287E3,6.2031E4,3.1031E4,3.5371E4,1.2025E4],"tree_param":{"num_deleted":"0","num_feature":"7","num_nodes":"15","size_leaf_vector":"0"}},{"base_weights":[5.2567494E-1,1.5518278E-1,1.1011769E0,1.2423364E-1,5.8728886E-1,1.5481318E0,2.2351646E-1,1.6301283E-1,8.702087E-3,-2.1595491E-1,1.3868262E0,1.9774836E0,1.3429797E-1,1.2947737E-1,1.039084E0],"categories":[],"categories_nodes":[],"categories_segments":[],"categories_sizes":[],"default_left":[1,1,1,1,1,1,1,0,0,0,0,0,0,0,0],"id":10,"left_children":[1,3,5,7,9,11,13,-1,-1,-1,-1,-1,-1,-1,-1],"loss_changes":[7.648784E4,2.9184785E3,5.511189E4,9.124048E2,9.3677705E3,5.6507156E4,3.635756E3,0E0,0E0,0E0,0E0,0E0,0E0,0E0,0E0],"parents":[2147483647,0,0,1,1,2,2,3,3,4,4,5,5,6,6],"right_children":[2,4,6,8,10,12,14,-1,-1,-1,-1,-1,-1,-1,-1],"split_conditions":[1.35E1,1.25E1,4.5E0,3.5E0,1.45E1,2.15E1,1.55E1,1.6301284E-2,8.702087E-4,-2.1595491E-2,1.3868262E-1,1.9774836E-1,1.3429797E-2,1.2947737E-2,1.039084E-1],"split_indices":[0,0,1,2,4,0,5,0,0,0,0,0,0,0,0],"split_type":[0,0,0,0,0,0,0,0,0,0,0,0,0,0,0],"sum_hessian":[3.58729E5,2.18236E5,1.40493E5,2.03651E5,1.4585E4,9.3087E4,4.7406E4,1.52472E5,5.1179E4,7.276E3,7.309E3,7.1403E4,2.1684E4,4.2506E4,4.9E3],"tree_param":{"num_deleted":"0","num_feature":"7","num_nodes":"15","size_leaf_vector":"0"}},{"base_weights":[4.6923187E-1,1.6112532E-1,1.0346869E0,1.1109085E-1,5.1958984E-1,1.4476725E0,2.2408846E-1,2.3238331E-1,8.010166E-2,-1.7018706E-1,1.1969752E0,2.0697613E0,3.8893208E-1,4.2454746E-2,7.585381E-1],"categories":[],"categories_nodes":[],"categories_segments":[],"categories_sizes":[],"default_left":[1,1,1,1,1,1,1,0,0,0,0,0,0,0,0],"id":11,"left_children":[1,3,5,7,9,11,13,-1,-1,-1,-1,-1,-1,-1,-1],"loss_changes":[6.2490766E4,4.164227E3,4.235086E4,7.658013E2,1.3287712E4,5.519903E4,4.145128E3,0E0,0E0,0E0,0E0,0E0,0E0,0E0,0E0],"parents":[2147483647,0,0,1,1,2,2,3,3,4,4,5,5,6,6],"right_children":[2,4,6,8,10,12,14,-1,-1,-1,-1,-1,-1,-1,-1],"split_conditions":[1.45E1,1.25E1,4.5E0,6.5E0,1.45E1,2.05E1,2.15E1,2.3238331E-2,8.010167E-3,-1.7018706E-2,1.19697526E-1,2.0697613E-1,3.8893208E-2,4.2454745E-3,7.585382E-2],"split_indices":[0,0,1,5,4,0,4,0,0,0,0,0,0,0,0],"split_type":[0,0,0,0,0,0,0,0,0,0,0,0,0,0,0],"sum_hessian":[3.58688E5,2.32179E5,1.26509E5,2.03742E5,2.8437E4,8.3809E4,4.27E4,4.146E4,1.62282E5,1.409E4,1.4347E4,5.279E4,3.1019E4,3.187E4,1.083E4],"tree_param":{"num_deleted":"0","num_feature":"7","num_nodes":"15","size_leaf_vector":"0"}},{"base_weights":[4.2642826E-1,1.4775097E-1,9.3764514E-1,1.011888E-1,4.8059323E-1,1.3163433E0,1.9686852E-1,1.5102127E-1,1.1406586E-2,-9.980611E-2,1.2880672E0,1.8807877E0,3.5428354E-1,9.805256E-2,1.0486126E0],"categories":[],"categories_nodes":[],"categories_segments":[],"categories_sizes":[],"default_left":[1,1,1,1,1,1,1,0,0,0,0,0,0,0,0],"id":12,"left_children":[1,3,5,7,9,11,13,-1,-1,-1,-1,-1,-1,-1,-1],"loss_changes":[5.1121113E4,3.599144E3,3.5514375E4,9.115364E2,1.335733E4,4.5489984E4,3.6044702E3,0E0,0E0,0E0,0E0,0E0,0E0,0E0,0E0],"parents":[2147483647,0,0,1,1,2,2,3,3,4,4,5,5,6,6],"right_children":[2,4,6,8,10,12,14,-1,-1,-1,-1,-1,-1,-1,-1],"split_conditions":[1.45E1,1.25E1,4.5E0,7.65E1,7.25E1,2.05E1,1.09E2,1.5102128E-2,1.1406586E-3,-9.980611E-3,1.2880673E-1,1.8807878E-1,3.5428356E-2,9.8052565E-3,1.0486126E-1],"split_indices":[0,0,1,3,3,0,3,0,0,0,0,0,0,0,0],"split_type":[0,0,0,0,0,0,0,0,0,0,0,0,0,0,0],"sum_hessian":[3.58834E5,2.32237E5,1.26597E5,2.03737E5,2.85E4,8.3771E4,4.2826E4,1.31017E5,7.272E4,1.6582E4,1.1918E4,5.2795E4,3.0976E4,3.8375E4,4.451E3],"tree_param":{"num_deleted":"0","num_feature":"7","num_nodes":"15","size_leaf_vector":"0"}},{"base_weights":[3.8296208E-1,1.3213302E-1,8.4268844E-1,9.012893E-2,4.3223664E-1,1.1138546E0,1.0173641E-2,1.3482778E-1,9.680323E-3,-1.87312E-1,1.0413604E0,1.579102E0,2.479681E-1,6.5481E-1,-2.2077999E-1],"categories":[],"categories_nodes":[],"categories_segments":[],"categories_sizes":[],"default_left":[1,1,1,1,1,1,1,0,0,0,0,0,0,0,0],"id":13,"left_children":[1,3,5,7,9,11,13,-1,-1,-1,-1,-1,-1,-1,-1],"loss_changes":[4.135034E4,2.9245823E3,2.857654E4,7.3186646E2,1.0750293E4,3.8465484E4,4.630645E3,0E0,0E0,0E0,0E0,0E0,0E0,0E0,0E0],"parents":[2147483647,0,0,1,1,2,2,3,3,4,4,5,5,6,6],"right_children":[2,4,6,8,10,12,14,-1,-1,-1,-1,-1,-1,-1,-1],"split_conditions":[1.45E1,1.25E1,2.15E1,7.65E1,1.45E1,4.5E0,4.75E1,1.3482778E-2,9.6803234E-4,-1.8731201E-2,1.0413604E-1,1.5791021E-1,2.479681E-2,6.5481E-2,-2.2077998E-2],"split_indices":[0,0,0,3,4,1,3,0,0,0,0,0,0,0,0],"split_type":[0,0,0,0,0,0,0,0,0,0,0,0,0,0,0],"sum_hessian":[3.58593E5,2.32009E5,1.26584E5,2.03524E5,2.8485E4,9.5483E4,3.1101E4,1.30831E5,7.2693E4,1.4122E4,1.4363E4,6.211E4,3.3373E4,8.203E3,2.2898E4],"tree_param":{"num_deleted":"0","num_feature":"7","num_nodes":"15","size_leaf_vector":"0"}},{"base_weights":[3.4624532E-1,1.18589036E-1,7.6409864E-1,8.082355E-2,3.8906014E-1,1.0898021E0,1.7632225E-1,-7.4168466E-2,1.0357306E-1,-1.2444936E-1,1.1041664E0,1.538108E0,2.5969043E-1,1.3727987E-1,4.6760054E0],"categories":[],"categories_nodes":[],"categories_segments":[],"categories_sizes":[],"default_left":[1,1,1,1,1,1,1,0,0,0,0,0,0,0,0],"id":14,"left_children":[1,3,5,7,9,11,13,-1,-1,-1,-1,-1,-1,-1,-1],"loss_changes":[3.412355E4,2.3718413E3,2.421918E4,7.184569E2,1.0447371E4,3.0293242E4,7.924033E3,0E0,0E0,0E0,0E0,0E0,0E0,0E0,0E0],"parents":[2147483647,0,0,1,1,2,2,3,3,4,4,5,5,6,6],"right_children":[2,4,6,8,10,12,14,-1,-1,-1,-1,-1,-1,-1,-1],"split_conditions":[1.45E1,1.25E1,2.05E1,3.75E1,7.25E1,4.5E0,1.355E2,-7.4168467E-3,1.0357306E-2,-1.2444936E-2,1.1041664E-1,1.538108E-1,2.5969043E-2,1.3727987E-2,4.6760055E-1],"split_indices":[0,0,0,3,3,1,3,0,0,0,0,0,0,0,0],"split_type":[0,0,0,0,0,0,0,0,0,0,0,0,0,0,0],"sum_hessian":[3.58716E5,2.32206E5,1.2651E5,2.03757E5,2.8449E4,8.1402E4,4.5108E4,2.6079E4,1.77678E5,1.6559E4,1.189E4,5.2856E4,2.8546E4,4.4721E4,3.87E2],"tree_param":{"num_deleted":"0","num_feature":"7","num_nodes":"15","size_leaf_vector":"0"}},{"base_weights":[3.10109E-1,1.0705167E-1,6.8321216E-1,3.3541664E-1,6.3369885E-2,1.4353243E0,4.5036066E-1,-5.450524E-3,1.615842E0,-3.6267787E-2,1.6968213E-1,1.0801616E0,4.1565194E0,-1.7863346E0,7.001217E-1],"categories":[],"categories_nodes":[],"categories_segments":[],"categories_sizes":[],"default_left":[1,1,1,1,1,1,1,0,0,0,0,0,0,0,0],"id":15,"left_children":[1,3,5,7,9,11,13,-1,-1,-1,-1,-1,-1,-1,-1],"loss_changes":[2.7184305E4,2.31785E3,2.2146E4,1.6283707E4,2.0661238E3,2.8888047E4,5.39457E4,0E0,0E0,0E0,0E0,0E0,0E0,0E0,0E0],"parents":[2147483647,0,0,1,1,2,2,3,3,4,4,5,5,6,6],"right_children":[2,4,6,8,10,12,14,-1,-1,-1,-1,-1,-1,-1,-1],"split_conditions":[1.45E1,4.05E1,4.75E1,3.75E1,7.25E1,4.45E1,5.25E1,-5.450524E-4,1.615842E-1,-3.6267787E-3,1.6968213E-2,1.08016156E-1,4.1565195E-1,-1.7863347E-1,7.0012175E-2],"split_indices":[0,3,3,3,3,3,3,0,0,0,0,0,0,0,0],"split_type":[0,0,0,0,0,0,0,0,0,0,0,0,0,0,0],"sum_hessian":[3.58815E5,2.32358E5,1.26457E5,3.7308E4,1.9505E5,2.9894E4,9.6563E4,2.9465E4,7.843E3,1.00686E5,9.4364E4,2.6444E4,3.45E3,9.699E3,8.6864E4],"tree_param":{"num_deleted":"0","num_feature":"7","num_nodes":"15","size_leaf_vector":"0"}},{"base_weights":[2.798215E-1,9.407727E-2,6.206355E-1,2.9961836E-1,5.481609E-2,5.2663267E-1,2.3364108E0,-5.547999E-3,1.447054E0,-4.2307686E-2,1.6281459E-1,6.1611897E-1,-2.035178E0,3.7998395E0,-4.1832155E-1],"categories":[],"categories_nodes":[],"categories_segments":[],"categories_sizes":[],"default_left":[1,1,1,1,1,1,1,0,0,0,0,0,0,0,0],"id":16,"left_children":[1,3,5,7,9,11,13,-1,-1,-1,-1,-1,-1,-1,-1],"loss_changes":[2.2717613E4,1.8744014E3,2.0416188E4,1.3044123E4,2.0456674E3,2.7514555E4,2.6507742E4,0E0,0E0,0E0,0E0,0E0,0E0,0E0,0E0],"parents":[2147483647,0,0,1,1,2,2,3,3,4,4,5,5,6,6],"right_children":[2,4,6,8,10,12,14,-1,-1,-1,-1,-1,-1,-1,-1],"split_conditions":[1.45E1,4.05E1,1.305E2,3.75E1,1.55E1,1.125E2,4.5E0,-5.547999E-4,1.447054E-1,-4.230769E-3,1.628146E-2,6.16119E-2,-2.035178E-1,3.7998396E-1,-4.1832156E-2],"split_indices":[0,3,3,3,4,3,1,0,0,0,0,0,0,0,0],"split_type":[0,0,0,0,0,0,0,0,0,0,0,0,0,0,0],"sum_hessian":[3.58864E5,2.32275E5,1.26589E5,3.7251E4,1.95024E5,1.20015E5,6.574E3,2.9426E4,7.825E3,1.02682E5,9.2342E4,1.15965E5,4.05E3,4.293E3,2.281E3],"tree_param":{"num_deleted":"0","num_feature":"7","num_nodes":"15","size_leaf_vector":"0"}},{"base_weights":[2.5084698E-1,5.309331E-2,5.1055694E-1,1.5684742E-1,2.6604874E-2,7.791381E-1,-2.0182883E-2,-4.146227E-2,1.393984E0,-1.6564319E-2,8.022376E-2,6.468227E-1,3.2207332E0,1.9895855E-1,-2.4748592E-1],"categories":[],"categories_nodes":[],"categories_segments":[],"categories_sizes":[],"default_left":[1,1,1,1,1,1,1,0,0,0,0,0,0,0,0],"id":17,"left_children":[1,3,5,7,9,11,13,-1,-1,-1,-1,-1,-1,-1,-1],"loss_changes":[1.8410338E4,5.592963E2,2.2088906E4,1.0154275E4,3.752602E2,3.3237938E4,2.5936848E3,0E0,0E0,0E0,0E0,0E0,0E0,0E0,0E0],"parents":[2147483647,0,0,1,1,2,2,3,3,4,4,5,5,6,6],"right_children":[2,4,6,8,10,12,14,-1,-1,-1,-1,-1,-1,-1,-1],"split_conditions":[1.25E1,7.5E0,4.5E0,6.5E0,3.5E0,4.5E0,5.5E0,-4.146227E-3,1.393984E-1,-1.6564319E-3,8.022376E-3,6.468227E-2,3.220733E-1,1.9895855E-2,-2.4748592E-2],"split_indices":[0,4,1,4,1,2,1,0,0,0,0,0,0,0,0],"split_type":[0,0,0,0,0,0,0,0,0,0,0,0,0,0,0],"sum_hessian":[3.58466E5,2.03508E5,1.54958E5,4.1388E4,1.6212E5,1.0289E5,5.2068E4,3.5671E4,5.717E3,8.9812E4,7.2308E4,9.7602E4,5.288E3,2.651E4,2.5558E4],"tree_param":{"num_deleted":"0","num_feature":"7","num_nodes":"15","size_leaf_vector":"0"}},{"base_weights":[2.2510506E-1,5.2895755E-1,1.2575886E-1,7.96674E-1,1.0412719E-1,-7.9924464E-1,2.2307125E-1,-2.9485366E-1,1.1107037E0,7.2472763E-1,8.521002E-3,-1.3708653E0,6.8465084E-2,1.7393132E0,1.3917929E-1],"categories":[],"categories_nodes":[],"categories_segments":[],"categories_sizes":[],"default_left":[1,1,1,1,1,1,1,0,0,0,0,0,0,0,0],"id":18,"left_children":[1,3,5,7,9,11,13,-1,-1,-1,-1,-1,-1,-1,-1],"loss_changes":[1.0835258E4,1.0058783E4,2.4349404E4,1.859675E4,2.0285974E3,1.2771619E4,3.113284E4,0E0,0E0,0E0,0E0,0E0,0E0,0E0,0E0],"parents":[2147483647,0,0,1,1,2,2,3,3,4,4,5,5,6,6],"right_children":[2,4,6,8,10,12,14,-1,-1,-1,-1,-1,-1,-1,-1],"split_conditions":[4.75E1,4.5E0,5.25E1,5E-1,4.5E0,4.5E0,5.55E1,-2.9485365E-2,1.1107037E-1,7.2472766E-2,8.521002E-4,-1.3708654E-1,6.8465085E-3,1.7393133E-1,1.39179295E-2],"split_indices":[3,1,3,1,4,1,3,0,0,0,0,0,0,0,0],"split_type":[0,0,0,0,0,0,0,0,0,0,0,0,0,0,0],"sum_hessian":[3.58944E5,8.8441E4,2.70503E5,5.4252E4,3.4189E4,2.5748E4,2.44755E5,1.2121E4,4.2131E4,4.563E3,2.9626E4,1.5522E4,1.0226E4,1.2831E4,2.31924E5],"tree_param":{"num_deleted":"0","num_feature":"7","num_nodes":"15","size_leaf_vector":"0"}},{"base_weights":[2.0456782E-1,2.3162652E-2,4.4284594E-1,1.7532825E-1,-4.93118E-4,1.0616676E0,2.5021237E-1,-1.0076162E-1,5.300812E0,-3.1568268E-1,9.829005E-3,7.8904283E-1,3.1171818E0,-1.7002658E0,4.6508762E-1],"categories":[],"categories_nodes":[],"categories_segments":[],"categories_sizes":[],"default_left":[1,1,1,1,1,1,1,0,0,0,0,0,0,0,0],"id":19,"left_children":[1,3,5,7,9,11,13,-1,-1,-1,-1,-1,-1,-1,-1],"loss_changes":[1.5498703E4,7.3279114E2,1.8474846E4,3.875996E4,5.7321436E2,2.0615195E4,4.953701E4,0E0,0E0,0E0,0E0,0E0,0E0,0E0,0E0],"parents":[2147483647,0,0,1,1,2,2,3,3,4,4,5,5,6,6],"right_children":[2,4,6,8,10,12,14,-1,-1,-1,-1,-1,-1,-1,-1],"split_conditions":[1.25E1,3.85E1,4.75E1,3.75E1,4.05E1,4.45E1,5.25E1,-1.0076162E-2,5.300812E-1,-3.156827E-2,9.829005E-4,7.8904286E-2,3.117182E-1,-1.7002659E-1,4.6508763E-2],"split_indices":[0,3,3,3,3,3,3,0,0,0,0,0,0,0,0],"split_type":[0,0,0,0,0,0,0,0,0,0,0,0,0,0,0],"sum_hessian":[3.58559E5,2.03575E5,1.54984E5,2.7389E4,1.76186E5,3.6791E4,1.18193E5,2.599E4,1.399E3,5.586E3,1.706E5,3.2484E4,4.307E3,1.1728E4,1.06465E5],"tree_param":{"num_deleted":"0","num_feature":"7","num_nodes":"15","size_leaf_vector":"0"}},{"base_weights":[1.8414433E-1,4.460029E-2,4.3964514E-1,1.6409808E-1,-1.9054811E-3,7.4294496E-1,-1.07250065E-1,-2.2658033E-2,4.9560773E-1,5.634645E-2,-1.823364E-1,1.1015726E0,8.271072E-2,1.8283412E-1,-5.864977E-1],"categories":[],"categories_nodes":[],"categories_segments":[],"categories_sizes":[],"default_left":[1,1,1,1,1,1,1,0,0,0,0,0,0,0,0],"id":20,"left_children":[1,3,5,7,9,11,13,-1,-1,-1,-1,-1,-1,-1,-1],"loss_changes":[1.2792604E4,1.2896471E3,2.1023184E4,4.0249988E3,1.7557914E3,1.9303969E4,6.2859946E3,0E0,0E0,0E0,0E0,0E0,0E0,0E0,0E0],"parents":[2147483647,0,0,1,1,2,2,3,3,4,4,5,5,6,6],"right_children":[2,4,6,8,10,12,14,-1,-1,-1,-1,-1,-1,-1,-1],"split_conditions":[1.45E1,1.5E0,2.05E1,7.95E1,3.5E0,4.5E0,7.55E1,-2.2658033E-3,4.9560774E-2,5.634645E-3,-1.823364E-2,1.10157266E-1,8.271072E-3,1.8283412E-2,-5.8649775E-2],"split_indices":[0,1,0,3,2,1,3,0,0,0,0,0,0,0,0],"split_type":[0,0,0,0,0,0,0,0,0,0,0,0,0,0,0],"sum_hessian":[3.58802E5,2.32061E5,1.26741E5,6.5011E4,1.6705E5,8.1527E4,4.5214E4,4.1585E4,2.3426E4,1.26281E5,4.0769E4,5.283E4,2.8697E4,2.8166E4,1.7048E4],"tree_param":{"num_deleted":"0","num_feature":"7","num_nodes":"15","size_leaf_vector":"0"}},{"base_weights":[1.6597964E-1,1.13792E-1,5.99473E-1,4.1003737E-1,7.047227E-4,1.1988465E0,-8.4207565E-1,-3.2006925E-1,5.258525E-1,-6.554157E-1,8.259626E-2,2.1398559E0,5.1515454E-1,-6.726659E-1,-1.4513329E0],"categories":[],"categories_nodes":[],"categories_segments":[],"categories_sizes":[],"default_left":[1,1,1,1,1,1,1,0,0,0,0,0,0,0,0],"id":21,"left_children":[1,3,5,7,9,11,13,-1,-1,-1,-1,-1,-1,-1,-1],"loss_changes":[8.1084863E3,1.0717457E4,3.3277242E4,7.4735215E3,1.2440217E4,1.7500234E4,1.166479E3,0E0,0E0,0E0,0E0,0E0,0E0,0E0,0E0],"parents":[2147483647,0,0,1,1,2,2,3,3,4,4,5,5,6,6],"right_children":[2,4,6,8,10,12,14,-1,-1,-1,-1,-1,-1,-1,-1],"split_conditions":[1.095E2,4.75E1,2.25E1,5E-1,5.25E1,1.315E2,1.155E2,-3.2006927E-2,5.258525E-2,-6.554157E-2,8.259626E-3,2.1398559E-1,5.1515456E-2,-6.726659E-2,-1.451333E-1],"split_indices":[3,3,4,1,3,3,3,0,0,0,0,0,0,0,0],"split_type":[0,0,0,0,0,0,0,0,0,0,0,0,0,0,0],"sum_hessian":[3.5842E5,3.19908E5,3.8512E4,8.8381E4,2.31527E5,2.7202E4,1.131E4,1.21E4,7.6281E4,2.569E4,2.05837E5,1.1446E4,1.5756E4,8.851E3,2.459E3],"tree_param":{"num_deleted":"0","num_feature":"7","num_nodes":"15","size_leaf_vector":"0"}},{"base_weights":[1.4780633E-1,1.1775973E-2,3.5953942E-1,1.356513E-1,-3.6231626E-2,1.6572535E0,2.6590395E-1,7.447199E-2,9.4427866E-1,-1.2486426E-1,8.433592E-2,2.657791E0,-2.0610899E-1,-5.343056E-1,4.980699E-1],"categories":[],"categories_nodes":[],"categories_segments":[],"categories_sizes":[],"default_left":[1,1,1,1,1,1,1,0,0,0,0,0,0,0,0],"id":22,"left_children":[1,3,5,7,9,11,13,-1,-1,-1,-1,-1,-1,-1,-1],"loss_changes":[1.0335351E4,1.2992843E3,1.7055355E4,3.0187656E3,1.6826306E3,1.761133E4,2.4322395E4,0E0,0E0,0E0,0E0,0E0,0E0,0E0,0E0],"parents":[2147483647,0,0,1,1,2,2,3,3,4,4,5,5,6,6],"right_children":[2,4,6,8,10,12,14,-1,-1,-1,-1,-1,-1,-1,-1],"split_conditions":[1.35E1,1.5E0,3.5E0,1.25E1,1.65E1,2.05E1,9.5E0,7.447199E-3,9.442787E-2,-1.2486426E-2,8.4335925E-3,2.657791E-1,-2.0610899E-2,-5.3430557E-2,4.9806993E-2],"split_indices":[0,1,4,0,4,0,4,0,0,0,0,0,0,0,0],"split_type":[0,0,0,0,0,0,0,0,0,0,0,0,0,0,0],"sum_hessian":[3.58839E5,2.18477E5,1.40362E5,6.1021E4,1.57456E5,9.445E3,1.30917E5,5.673E4,4.291E3,9.0746E4,6.671E4,6.145E3,3.3E3,2.9441E4,1.01476E5],"tree_param":{"num_deleted":"0","num_feature":"7","num_nodes":"15","size_leaf_vector":"0"}},{"base_weights":[1.3577542E-1,5.985604E-4,3.1315255E-1,4.243079E-2,-7.483645E-2,2.0290104E-1,1.2009479E0,7.637307E-3,3.2113256E0,-9.3454376E-2,1.4129339E-1,8.565353E-1,-3.5407163E-2,2.426928E0,-1.7042968E0],"categories":[],"categories_nodes":[],"categories_segments":[],"categories_sizes":[],"default_left":[1,1,1,1,1,1,1,0,0,0,0,0,0,0,0],"id":23,"left_children":[1,3,5,7,9,11,13,-1,-1,-1,-1,-1,-1,-1,-1],"loss_changes":[8.593578E3,6.41852E2,1.5171963E4,1.4426207E4,2.9197864E2,2.147788E4,6.0992367E4,0E0,0E0,0E0,0E0,0E0,0E0,0E0,0E0],"parents":[2147483647,0,0,1,1,2,2,3,3,4,4,5,5,6,6],"right_children":[2,4,6,8,10,12,14,-1,-1,-1,-1,-1,-1,-1,-1],"split_conditions":[1.25E1,7.65E1,1.095E2,7.55E1,1.15E1,4.75E1,2.25E1,7.637307E-4,3.2113257E-1,-9.345437E-3,1.412934E-2,8.5653536E-2,-3.5407164E-3,2.4269281E-1,-1.7042969E-1],"split_indices":[0,3,3,3,0,3,4,0,0,0,0,0,0,0,0],"split_type":[0,0,0,0,0,0,0,0,0,0,0,0,0,0,0],"sum_hessian":[3.58404E5,2.03398E5,1.55006E5,1.30841E5,7.2557E4,1.37884E5,1.7122E4,1.29421E5,1.42E3,6.6803E4,5.754E3,3.6839E4,1.01045E5,1.2041E4,5.081E3],"tree_param":{"num_deleted":"0","num_feature":"7","num_nodes":"15","size_leaf_vector":"0"}},{"base_weights":[1.1930507E-1,2.1973653E-1,-9.0365194E-2,1.757988E-2,4.942963E-1,2.4674903E-3,-1.8669097E-1,3.2481027E-1,-1.4417103E-2,3.8951826E-1,2.4349625E0,-6.8182684E-2,6.2520796E-1,-6.802118E-2,-3.3154282E-1],"categories":[],"categories_nodes":[],"categories_segments":[],"categories_sizes":[],"default_left":[1,1,1,1,1,1,1,0,0,0,0,0,0,0,0],"id":24,"left_children":[1,3,5,7,9,11,13,-1,-1,-1,-1,-1,-1,-1,-1],"loss_changes":[7.555974E3,1.346606E4,1.0391892E3,1.3736324E3,2.0919203E4,2.6037686E3,9.803484E2,0E0,0E0,0E0,0E0,0E0,0E0,0E0,0E0],"parents":[2147483647,0,0,1,1,2,2,3,3,4,4,5,5,6,6],"right_children":[2,4,6,8,10,12,14,-1,-1,-1,-1,-1,-1,-1,-1],"split_conditions":[4.5E0,1.25E1,5.5E0,3.85E1,1.305E2,1.085E2,1.25E1,3.2481026E-2,-1.4417103E-3,3.8951825E-2,2.4349625E-1,-6.8182684E-3,6.2520795E-2,-6.802118E-3,-3.3154283E-2],"split_indices":[1,0,1,3,3,3,0,0,0,0,0,0,0,0,0],"split_type":[0,0,0,0,0,0,0,0,0,0,0,0,0,0,0],"sum_hessian":[3.58824E5,2.42613E5,1.16211E5,1.39731E5,1.02882E5,5.9179E4,5.7032E4,1.3179E4,1.26552E5,9.7613E4,5.269E3,5.315E4,6.029E3,3.135E4,2.5682E4],"tree_param":{"num_deleted":"0","num_feature":"7","num_nodes":"15","size_leaf_vector":"0"}},{"base_weights":[1.0860842E-1,1.542134E-1,-3.717247E-1,1.2359636E-2,4.9918252E-1,-1.10121064E-1,-8.227763E-1,1.2345969E-1,-3.0976946E-2,2.5201306E0,3.6076885E-1,-1.8938924E-1,3.1975439E0,-8.789034E-1,1.562018E0],"categories":[],"categories_nodes":[],"categories_segments":[],"categories_sizes":[],"default_left":[1,1,1,1,1,1,1,0,0,0,0,0,0,0,0],"id":25,"left_children":[1,3,5,7,9,11,13,-1,-1,-1,-1,-1,-1,-1,-1],"loss_changes":[7.8606777E3,1.603732E4,3.671496E3,1.1181302E3,2.6711607E4,5.164489E3,1.5302236E3,0E0,0E0,0E0,0E0,0E0,0E0,0E0,0E0],"parents":[2147483647,0,0,1,1,2,2,3,3,4,4,5,5,6,6],"right_children":[2,4,6,8,10,12,14,-1,-1,-1,-1,-1,-1,-1,-1],"split_conditions":[2.15E1,1.45E1,7.55E1,1.5E0,3.5E0,7.35E1,1.355E2,1.2345969E-2,-3.0976946E-3,2.5201306E-1,3.6076885E-2,-1.8938925E-2,3.197544E-1,-8.789034E-2,1.5620181E-1],"split_indices":[0,0,3,1,4,3,3,0,0,0,0,0,0,0,0],"split_type":[0,0,0,0,0,0,0,0,0,0,0,0,0,0,0],"sum_hessian":[3.5884E5,3.27725E5,3.1115E4,2.32231E5,9.5494E4,1.9694E4,1.1421E4,6.5166E4,1.67065E5,6.12E3,8.9374E4,1.9234E4,4.6E2,1.1159E4,2.62E2],"tree_param":{"num_deleted":"0","num_feature":"7","num_nodes":"15","size_leaf_vector":"0"}},{"base_weights":[9.591086E-2,1.2497622E-1,-5.248247E-1,1.11150155E-2,3.6420834E-1,-4.070252E-1,-1.0598292E0,-5.1813636E-2,8.01646E-2,1.7720752E0,2.6434088E-1,3.070963E-1,-4.7693646E-1,-9.813403E-1,-2.6691432E0],"categories":[],"categories_nodes":[],"categories_segments":[],"categories_sizes":[],"default_left":[1,1,1,1,1,1,1,0,0,0,0,0,0,0,0],"id":26,"left_children":[1,3,5,7,9,11,13,-1,-1,-1,-1,-1,-1,-1,-1],"loss_changes":[6.4701987E3,9.331539E3,1.0105244E3,1.008559E3,1.5531619E4,6.5656226E2,3.6293164E2,0E0,0E0,0E0,0E0,0E0,0E0,0E0,0E0],"parents":[2147483647,0,0,1,1,2,2,3,3,4,4,5,5,6,6],"right_children":[2,4,6,8,10,12,14,-1,-1,-1,-1,-1,-1,-1,-1],"split_conditions":[2.25E1,1.45E1,9.95E1,1.55E1,3.5E0,2.95E1,1.355E2,-5.181364E-3,8.01646E-3,1.7720751E-1,2.6434088E-2,3.070963E-2,-4.7693647E-2,-9.813403E-2,-2.6691434E-1],"split_indices":[0,0,3,4,4,3,3,0,0,0,0,0,0,0,0],"split_type":[0,0,0,0,0,0,0,0,0,0,0,0,0,0,0],"sum_hessian":[3.58616E5,3.42576E5,1.604E4,2.32107E5,1.10469E5,1.3147E4,2.893E3,1.21436E5,1.10671E5,7.316E3,1.03153E5,1.172E3,1.1975E4,2.76E3,1.33E2],"tree_param":{"num_deleted":"0","num_feature":"7","num_nodes":"15","size_leaf_vector":"0"}},{"base_weights":[9.092715E-2,1.818163E-1,-9.886915E-2,1.2778599E-2,4.1111368E-1,-1.2469684E-2,-2.0919733E-1,2.954036E-1,-1.6601138E-2,-2.0363101E-1,7.0583224E-1,3.1134418E-1,-6.92348E-2,-3.1154767E-1,1.568151E-1],"categories":[],"categories_nodes":[],"categories_segments":[],"categories_sizes":[],"default_left":[1,1,1,1,1,1,1,0,0,0,0,0,0,0,0],"id":27,"left_children":[1,3,5,7,9,11,13,-1,-1,-1,-1,-1,-1,-1,-1],"loss_changes":[6.1837607E3,9.395123E3,1.1064777E3,1.1586016E3,1.863634E4,1.1966278E3,1.9097988E3,0E0,0E0,0E0,0E0,0E0,0E0,0E0,0E0],"parents":[2147483647,0,0,1,1,2,2,3,3,4,4,5,5,6,6],"right_children":[2,4,6,8,10,12,14,-1,-1,-1,-1,-1,-1,-1,-1],"split_conditions":[4.5E0,1.25E1,6.7E1,3.85E1,1.05E1,4.5E0,2.05E1,2.954036E-2,-1.6601138E-3,-2.0363102E-2,7.0583224E-2,3.1134417E-2,-6.9234804E-3,-3.1154767E-2,1.568151E-2],"split_indices":[1,0,3,3,4,4,4,0,0,0,0,0,0,0,0],"split_type":[0,0,0,0,0,0,0,0,0,0,0,0,0,0,0],"sum_hessian":[3.58468E5,2.42392E5,1.16076E5,1.39531E5,1.02861E5,6.5098E4,5.0978E4,1.3138E4,1.26393E5,3.3333E4,6.9528E4,9.709E3,5.5389E4,3.9838E4,1.114E4],"tree_param":{"num_deleted":"0","num_feature":"7","num_nodes":"15","size_leaf_vector":"0"}},{"base_weights":[7.845738E-2,1.1982757E-1,-3.564004E-1,1.8221153E-2,4.2502138E-1,-1.4147857E-1,-7.600104E-1,-4.7763754E-2,8.03065E-2,2.226881E0,3.0068392E-1,-3.3776578E-1,8.0119036E-2,-8.691744E-1,-4.585707E-1],"categories":[],"categories_nodes":[],"categories_segments":[],"categories_sizes":[],"default_left":[1,1,1,1,1,1,1,0,0,0,0,0,0,0,0],"id":28,"left_children":[1,3,5,7,9,11,13,-1,-1,-1,-1,-1,-1,-1,-1],"loss_changes":[6.4583438E3,1.0165141E4,2.7051099E3,1.00750824E3,1.8342719E4,8.8523E2,3.561748E2,0E0,0E0,0E0,0E0,0E0,0E0,0E0,0E0],"parents":[2147483647,0,0,1,1,2,2,3,3,4,4,5,5,6,6],"right_children":[2,4,6,8,10,12,14,-1,-1,-1,-1,-1,-1,-1,-1],"split_conditions":[2.15E1,1.55E1,1.15E1,1.45E1,3.5E0,1.45E1,4.5E0,-4.7763754E-3,8.03065E-3,2.2268811E-1,3.0068392E-2,-3.3776578E-2,8.011904E-3,-8.6917445E-2,-4.585707E-2],"split_indices":[0,0,5,4,4,4,1,0,0,0,0,0,0,0,0],"split_type":[0,0,0,0,0,0,0,0,0,0,0,0,0,0,0],"sum_hessian":[3.5899E5,3.27805E5,3.1185E4,2.4593E5,8.1875E4,2.035E4,1.0835E4,1.19221E5,1.26709E5,5.284E3,7.6591E4,1.0791E4,9.559E3,7.953E3,2.882E3],"tree_param":{"num_deleted":"0","num_feature":"7","num_nodes":"15","size_leaf_vector":"0"}},{"base_weights":[7.0513956E-2,2.825322E-1,1.072266E-3,-4.1058433E-1,3.9233765E-1,-6.8246406E-1,7.272503E-2,-1.121545E0,6.7705005E-2,1.0888845E0,1.588414E-1,-1.2410182E0,1.5975161E-1,1.4252689E0,-2.303068E-3],"categories":[],"categories_nodes":[],"categories_segments":[],"categories_sizes":[],"default_left":[1,1,1,1,1,1,1,0,0,0,0,0,0,0,0],"id":29,"left_children":[1,3,5,7,9,11,13,-1,-1,-1,-1,-1,-1,-1,-1],"loss_changes":[5.2792354E3,6.733205E3,1.3229152E4,4.1142793E3,1.2420564E4,1.20562E4,2.4809537E4,0E0,0E0,0E0,0E0,0E0,0E0,0E0,0E0],"parents":[2147483647,0,0,1,1,2,2,3,3,4,4,5,5,6,6],"right_children":[2,4,6,8,10,12,14,-1,-1,-1,-1,-1,-1,-1,-1],"split_conditions":[4.75E1,5E-1,5.25E1,9.5E0,2.5E0,4.5E0,5.55E1,-1.121545E-1,6.7705004E-3,1.0888845E-1,1.588414E-2,-1.2410182E-1,1.597516E-2,1.425269E-1,-2.303068E-4],"split_indices":[3,1,3,4,1,1,3,0,0,0,0,0,0,0,0],"split_type":[0,0,0,0,0,0,0,0,0,0,0,0,0,0,0],"sum_hessian":[3.58572E5,8.8466E4,2.70106E5,1.2098E4,7.6368E4,2.5627E4,2.44479E5,4.865E3,7.233E3,1.9172E4,5.7196E4,1.5408E4,1.0219E4,1.2848E4,2.31631E5],"tree_param":{"num_deleted":"0","num_feature":"7","num_nodes":"15","size_leaf_vector":"0"}},{"base_weights":[6.598439E-2,1.0300522E-1,-3.2277685E-1,8.736119E-3,3.8501936E-1,-1.3090153E-1,-6.8553984E-1,-4.857506E-2,8.7581076E-2,2.0108228E0,2.741699E-1,-9.708457E-2,-1.5641025E0,-7.2180027E-1,3.3093855E-2],"categories":[],"categories_nodes":[],"categories_segments":[],"categories_sizes":[],"default_left":[1,1,1,1,1,1,1,0,0,0,0,0,0,0,0],"id":30,"left_children":[1,3,5,7,9,11,13,-1,-1,-1,-1,-1,-1,-1,-1],"loss_changes":[5.160481E3,8.70352E3,2.1699246E3,1.1087344E3,1.478069E4,9.881771E2,2.810581E2,0E0,0E0,0E0,0E0,0E0,0E0,0E0,0E0],"parents":[2147483647,0,0,1,1,2,2,3,3,4,4,5,5,6,6],"right_children":[2,4,6,8,10,12,14,-1,-1,-1,-1,-1,-1,-1,-1],"split_conditions":[2.15E1,1.55E1,1.15E1,1.05E1,3.5E0,2.95E1,1.95E1,-4.857506E-3,8.758108E-3,2.0108227E-1,2.741699E-2,-9.708457E-3,-1.5641026E-1,-7.2180025E-2,3.3093856E-3],"split_indices":[0,0,5,5,4,4,5,0,0,0,0,0,0,0,0],"split_type":[0,0,0,0,0,0,0,0,0,0,0,0,0,0,0],"sum_hessian":[3.58556E5,3.27381E5,3.1175E4,2.45364E5,8.2017E4,2.0391E4,1.0784E4,1.42085E5,1.03279E5,5.234E3,7.6783E4,1.9922E4,4.69E2,1.0266E4,5.18E2],"tree_param":{"num_deleted":"0","num_feature":"7","num_nodes":"15","size_leaf_vector":"0"}},{"base_weights":[5.567795E-2,1.3580765E-1,-1.1167761E-1,9.6177325E-2,8.779634E-1,-3.9992984E-2,-2.4396802E-1,4.4336787E-1,-1.0815585E-2,4.2187862E-2,2.208815E0,2.9581735E-1,-8.9829296E-2,-3.917027E-1,1.1024166E-1],"categories":[],"categories_nodes":[],"categories_segments":[],"categories_sizes":[],"default_left":[1,1,1,1,1,1,1,0,0,0,0,0,0,0,0],"id":31,"left_children":[1,3,5,7,9,11,13,-1,-1,-1,-1,-1,-1,-1,-1],"loss_changes":[4.809123E3,7.132472E3,1.1011024E3,8.551747E3,1.3673328E4,1.2603306E3,2.1353826E3,0E0,0E0,0E0,0E0,0E0,0E0,0E0,0E0],"parents":[2147483647,0,0,1,1,2,2,3,3,4,4,5,5,6,6],"right_children":[2,4,6,8,10,12,14,-1,-1,-1,-1,-1,-1,-1,-1],"split_conditions":[4.5E0,1.305E2,7.4E1,4.75E1,1.35E1,4.5E0,1.09E2,4.433679E-2,-1.0815585E-3,4.2187865E-3,2.208815E-1,2.9581735E-2,-8.982929E-3,-3.9170273E-2,1.1024166E-2],"split_indices":[1,3,3,3,0,4,3,0,0,0,0,0,0,0,0],"split_type":[0,0,0,0,0,0,0,0,0,0,0,0,0,0,0],"sum_hessian":[3.58616E5,2.42505E5,1.16111E5,2.30213E5,1.2292E4,7.5306E4,4.0805E4,5.4231E4,1.75982E5,7.551E3,4.741E3,9.731E3,6.5575E4,2.8795E4,1.201E4],"tree_param":{"num_deleted":"0","num_feature":"7","num_nodes":"15","size_leaf_vector":"0"}},{"base_weights":[5.22495E-2,1.2570998E-1,-1.0130414E-1,9.0190805E-2,7.947569E-1,-4.816879E-1,-8.050622E-2,1.2733866E-1,-8.7525964E-1,1.7115936E0,5.0729316E-1,-4.9530414E-1,-4.6739256E-1,2.4023041E-1,-1.11565165E-1],"categories":[],"categories_nodes":[],"categories_segments":[],"categories_sizes":[],"default_left":[1,1,1,1,1,1,1,0,0,0,0,0,0,0,0],"id":32,"left_children":[1,3,5,7,9,11,13,-1,-1,-1,-1,-1,-1,-1,-1],"loss_changes":[4.048709E3,5.769304E3,9.188146E2,8.268294E3,3.22481E3,9.404297E-1,1.0970735E3,0E0,0E0,0E0,0E0,0E0,0E0,0E0,0E0],"parents":[2147483647,0,0,1,1,2,2,3,3,4,4,5,5,6,6],"right_children":[2,4,6,8,10,12,14,-1,-1,-1,-1,-1,-1,-1,-1],"split_conditions":[4.5E0,1.305E2,3E0,1.125E2,1.315E2,5.5E0,4.5E0,1.2733866E-2,-8.7525964E-2,1.7115937E-1,5.0729316E-2,-4.9530413E-2,-4.6739258E-2,2.4023041E-2,-1.1156517E-2],"split_indices":[1,3,4,3,3,1,4,0,0,0,0,0,0,0,0],"split_type":[0,0,0,0,0,0,0,0,0,0,0,0,0,0,0],"sum_hessian":[3.58922E5,2.42777E5,1.16145E5,2.30539E5,1.2238E4,6.02E3,1.10125E5,2.21998E5,8.541E3,2.92E3,9.318E3,3.066E3,2.954E3,9.722E3,1.00403E5],"tree_param":{"num_deleted":"0","num_feature":"7","num_nodes":"15","size_leaf_vector":"0"}},{"base_weights":[4.6687618E-2,8.078812E-2,-3.1349513E-1,-4.933654E-4,3.2448283E-1,-1.2965873E-1,-6.289009E-1,-5.72473E-2,8.649225E-2,1.8518248E-1,1.4157566E0,-1.7245454E-1,4.762664E0,-6.80851E-1,1.5359634E0],"categories":[],"categories_nodes":[],"categories_segments":[],"categories_sizes":[],"default_left":[1,1,1,1,1,1,1,0,0,0,0,0,0,0,0],"id":33,"left_children":[1,3,5,7,9,11,13,-1,-1,-1,-1,-1,-1,-1,-1],"loss_changes":[4.4055557E3,6.4903457E3,1.798669E3,1.21303E3,1.2457962E4,4.10449E3,1.2857314E3,0E0,0E0,0E0,0E0,0E0,0E0,0E0,0E0],"parents":[2147483647,0,0,1,1,2,2,3,3,4,4,5,5,6,6],"right_children":[2,4,6,8,10,12,14,-1,-1,-1,-1,-1,-1,-1,-1],"split_conditions":[2.15E1,1.55E1,7.55E1,7.35E1,1.095E2,7.45E1,1.355E2,-5.72473E-3,8.649225E-3,1.8518249E-2,1.4157566E-1,-1.7245455E-2,4.7626638E-1,-6.80851E-2,1.5359634E-1],"split_indices":[0,0,3,3,3,3,3,0,0,0,0,0,0,0,0],"split_type":[0,0,0,0,0,0,0,0,0,0,0,0,0,0,0],"sum_hessian":[3.58685E5,3.27664E5,3.1021E4,2.45711E5,8.1953E4,1.9599E4,1.1422E4,1.48695E5,9.7016E4,7.2677E4,9.276E3,1.943E4,1.69E2,1.1155E4,2.67E2],"tree_param":{"num_deleted":"0","num_feature":"7","num_nodes":"15","size_leaf_vector":"0"}},{"base_weights":[4.1111767E-2,6.2848255E-2,-4.237167E-1,1.3940628E-1,-9.591297E-2,-3.671364E-1,-1.4718672E0,-2.509773E-2,3.9059958E-1,-1.0398221E-2,-2.1161534E-1,-4.4124648E-1,7.847962E-2,-1.9737678E0,-2.8588128E-1],"categories":[],"categories_nodes":[],"categories_segments":[],"categories_sizes":[],"default_left":[1,1,1,1,1,1,1,0,0,0,0,0,0,0,0],"id":34,"left_children":[1,3,5,7,9,11,13,-1,-1,-1,-1,-1,-1,-1,-1],"loss_changes":[3.6225503E3,4.163117E3,9.493423E2,9.548933E3,1.1025547E3,5.0194287E2,4.8753833E2,0E0,0E0,0E0,0E0,0E0,0E0,0E0,0E0],"parents":[2147483647,0,0,1,1,2,2,3,3,4,4,5,5,6,6],"right_children":[2,4,6,8,10,12,14,-1,-1,-1,-1,-1,-1,-1,-1],"split_conditions":[2.25E1,4.5E0,1.305E2,1.25E1,1.25E1,5.5E0,4.5E0,-2.509773E-3,3.905996E-2,-1.0398221E-3,-2.1161534E-2,-4.4124648E-2,7.847962E-3,-1.9737677E-1,-2.858813E-2],"split_indices":[0,1,3,0,0,1,1,0,0,0,0,0,0,0,0],"split_type":[0,0,0,0,0,0,0,0,0,0,0,0,0,0,0],"sum_hessian":[3.58532E5,3.42516E5,1.6016E4,2.31083E5,1.11433E5,1.5197E4,8.19E2,1.39637E5,9.1446E4,6.4076E4,4.7357E4,1.303E4,2.167E3,5.75E2,2.44E2],"tree_param":{"num_deleted":"0","num_feature":"7","num_nodes":"15","size_leaf_vector":"0"}},{"base_weights":[3.830742E-2,2.2131576E-1,-2.1620685E-2,-4.3932465E-1,3.2601038E-1,-6.1259395E-1,4.0389556E-2,-1.088425E0,-1.95541E-3,9.190755E-1,1.2765001E-1,-1.1332902E0,1.7094857E-1,1.2777506E0,-2.8308116E-2],"categories":[],"categories_nodes":[],"categories_segments":[],"categories_sizes":[],"default_left":[1,1,1,1,1,1,1,0,0,0,0,0,0,0,0],"id":35,"left_children":[1,3,5,7,9,11,13,-1,-1,-1,-1,-1,-1,-1,-1],"loss_changes":[3.9356792E3,6.12288E3,9.906718E3,3.437985E3,8.989273E3,1.0474051E4,2.0797158E4,0E0,0E0,0E0,0E0,0E0,0E0,0E0,0E0],"parents":[2147483647,0,0,1,1,2,2,3,3,4,4,5,5,6,6],"right_children":[2,4,6,8,10,12,14,-1,-1,-1,-1,-1,-1,-1,-1],"split_conditions":[4.75E1,5E-1,5.25E1,9.5E0,2.5E0,4.5E0,5.55E1,-1.0884251E-1,-1.95541E-4,9.190755E-2,1.2765001E-2,-1.13329016E-1,1.7094856E-2,1.2777506E-1,-2.8308115E-3],"split_indices":[3,1,3,4,1,1,3,0,0,0,0,0,0,0,0],"split_type":[0,0,0,0,0,0,0,0,0,0,0,0,0,0,0],"sum_hessian":[3.58853E5,8.8522E4,2.70331E5,1.2109E4,7.6413E4,2.5671E4,2.4466E5,4.874E3,7.235E3,1.9151E4,5.7262E4,1.5422E4,1.0249E4,1.2868E4,2.31792E5],"tree_param":{"num_deleted":"0","num_feature":"7","num_nodes":"15","size_leaf_vector":"0"}},{"base_weights":[3.3117156E-2,-8.679108E-2,1.13209516E-1,2.508996E-1,-4.2741737E-1,-4.526275E-2,3.2586953E-1,1.2397693E-2,6.443524E-1,-5.2701663E-2,-9.477053E-1,-3.283432E-2,-5.452747E-1,1.0314792E0,9.1466755E-2],"categories":[],"categories_nodes":[],"categories_segments":[],"categories_sizes":[],"default_left":[1,1,1,1,1,1,1,0,0,0,0,0,0,0,0],"id":36,"left_children":[1,3,5,7,9,11,13,-1,-1,-1,-1,-1,-1,-1,-1],"loss_changes":[3.4452825E3,1.6525133E4,7.2483984E3,6.7698374E3,1.3943689E4,7.6585876E2,1.5189792E4,0E0,0E0,0E0,0E0,0E0,0E0,0E0,0E0],"parents":[2147483647,0,0,1,1,2,2,3,3,4,4,5,5,6,6],"right_children":[2,4,6,8,10,12,14,-1,-1,-1,-1,-1,-1,-1,-1],"split_conditions":[1.25E1,6.55E1,1.25E1,1.35E1,1.35E1,3.05E1,1.65E1,1.2397693E-3,6.4435236E-2,-5.2701663E-3,-9.4770536E-2,-3.2834322E-3,-5.452747E-2,1.03147924E-1,9.1466755E-3],"split_indices":[4,3,0,0,0,4,4,0,0,0,0,0,0,0,0],"split_type":[0,0,0,0,0,0,0,0,0,0,0,0,0,0,0],"sum_hessian":[3.58742E5,1.43662E5,2.1508E5,7.2142E4,7.152E4,1.23242E5,9.1838E4,4.4916E4,2.7226E4,4.1577E4,2.9943E4,1.20254E5,2.988E3,2.29E4,6.8938E4],"tree_param":{"num_deleted":"0","num_feature":"7","num_nodes":"15","size_leaf_vector":"0"}},{"base_weights":[2.981115E-2,6.746634E-2,-2.31864E-1,-6.1321314E-3,3.3352542E-1,-2.700324E-2,-5.6987727E-1,-6.916301E-2,7.1286306E-2,2.0667686E0,2.1366143E-1,-1.0481556E-1,2.9762173E0,-6.3383E-1,2.261547E0],"categories":[],"categories_nodes":[],"categories_segments":[],"categories_sizes":[],"default_left":[1,1,1,1,1,1,1,0,0,0,0,0,0,0,0],"id":37,"left_children":[1,3,5,7,9,11,13,-1,-1,-1,-1,-1,-1,-1,-1],"loss_changes":[3.5313066E3,6.13488E3,3.121856E3,1.1975596E3,1.4103317E4,6.560389E3,3.082102E3,0E0,0E0,0E0,0E0,0E0,0E0,0E0,0E0],"parents":[2147483647,0,0,1,1,2,2,3,3,4,4,5,5,6,6],"right_children":[2,4,6,8,10,12,14,-1,-1,-1,-1,-1,-1,-1,-1],"split_conditions":[2.05E1,1.55E1,7.55E1,6.95E1,3.5E0,7.35E1,1.355E2,-6.916301E-3,7.1286308E-3,2.0667687E-1,2.1366144E-2,-1.0481556E-2,2.9762173E-1,-6.3383006E-2,2.2615471E-1],"split_indices":[0,0,3,3,4,3,3,0,0,0,0,0,0,0,0],"split_type":[0,0,0,0,0,0,0,0,0,0,0,0,0,0,0],"sum_hessian":[3.58381E5,3.13298E5,4.5083E4,2.45412E5,6.7886E4,2.8071E4,1.7012E4,1.35276E5,1.10136E5,4.39E3,6.3496E4,2.7363E4,7.08E2,1.6637E4,3.75E2],"tree_param":{"num_deleted":"0","num_feature":"7","num_nodes":"15","size_leaf_vector":"0"}},{"base_weights":[2.7993439E-2,-4.2922883E-3,2.969071E-1,1.0154203E-1,-1.3211854E-1,1.6389904E0,-8.327008E-2,-2.3504004E-1,2.237596E-1,-1.0707799E0,1.8979268E-2,-3.34109E-1,3.6303995E0,1.5367515E0,-2.6186103E-1],"categories":[],"categories_nodes":[],"categories_segments":[],"categories_sizes":[],"default_left":[1,1,1,1,1,1,1,0,0,0,0,0,0,0,0],"id":38,"left_children":[1,3,5,7,9,11,13,-1,-1,-1,-1,-1,-1,-1,-1],"loss_changes":[3.1118909E3,4.329211E3,1.9603152E4,7.201528E3,2.0557521E4,3.3325164E4,8.662678E3,0E0,0E0,0E0,0E0,0E0,0E0,0E0,0E0],"parents":[2147483647,0,0,1,1,2,2,3,3,4,4,5,5,6,6],"right_children":[2,4,6,8,10,12,14,-1,-1,-1,-1,-1,-1,-1,-1],"split_conditions":[1.095E2,6.55E1,1.125E2,1.5E0,6.95E1,1.15E1,1.15E1,-2.3504004E-2,2.2375962E-2,-1.0707799E-1,1.8979268E-3,-3.3410903E-2,3.6303994E-1,1.5367515E-1,-2.6186103E-2],"split_indices":[3,3,3,1,3,0,4,0,0,0,0,0,0,0,0],"split_type":[0,0,0,0,0,0,0,0,0,0,0,0,0,0,0],"sum_hessian":[3.58426E5,3.20007E5,3.8419E4,1.75063E5,1.44944E5,8.48E3,2.9939E4,4.6634E4,1.28429E5,2.0096E4,1.24848E5,4.26E3,4.22E3,2.972E3,2.6967E4],"tree_param":{"num_deleted":"0","num_feature":"7","num_nodes":"15","size_leaf_vector":"0"}},{"base_weights":[2.3113245E-2,8.651745E-2,-1.0938482E-1,5.4639082E-2,6.8554807E-1,-5.500186E-1,-9.300226E-2,8.808004E-2,-8.213017E-1,1.4395059E0,4.5073986E-1,2.1505477E-1,-1.3921604E-1],"categories":[],"categories_nodes":[],"categories_segments":[],"categories_sizes":[],"default_left":[1,1,1,1,1,0,1,0,0,0,0,0,0],"id":39,"left_children":[1,3,5,7,9,-1,11,-1,-1,-1,-1,-1,-1],"loss_changes":[3.013853E3,4.633464E3,8.381201E2,6.74849E3,2.1698057E3,0E0,1.5938037E3,0E0,0E0,0E0,0E0,0E0,0E0],"parents":[2147483647,0,0,1,1,2,2,3,3,4,4,6,6],"right_children":[2,4,6,8,10,-1,12,-1,-1,-1,-1,-1,-1],"split_conditions":[4.5E0,1.305E2,2.15E1,1.125E2,1.315E2,-5.5001862E-2,3.55E1,8.808005E-3,-8.213017E-2,1.439506E-1,4.5073986E-2,2.1505477E-2,-1.3921604E-2],"split_indices":[1,3,3,3,3,0,3,0,0,0,0,0,0],"split_type":[0,0,0,0,0,0,0,0,0,0,0,0,0],"sum_hessian":[3.5875E5,2.4264E5,1.1611E5,2.30381E5,1.2259E4,4.161E3,1.11949E5,2.2191E5,8.471E3,2.91E3,9.349E3,1.4603E4,9.7346E4],"tree_param":{"num_deleted":"0","num_feature":"7","num_nodes":"13","size_leaf_vector":"0"}},{"base_weights":[2.4209524E-2,5.2338574E-2,-2.719072E-1,9.908285E-2,-1.9309527E-1,-1.7566878E-1,-7.048811E-1,-3.987973E-3,3.5505307E-1,-2.7007742E-2,-4.4052535E-1,-1.4079694E-1,-1.0331991E0,-8.09326E-1,-1.0449043E-2],"categories":[],"categories_nodes":[],"categories_segments":[],"categories_sizes":[],"default_left":[1,1,1,1,1,1,1,0,0,0,0,0,0,0,0],"id":40,"left_children":[1,3,5,7,9,11,13,-1,-1,-1,-1,-1,-1,-1,-1],"loss_changes":[2.9885493E3,3.7591975E3,1.2968564E3,7.2617803E3,2.1542727E3,7.614109E2,4.10511E2,0E0,0E0,0E0,0E0,0E0,0E0,0E0,0E0],"parents":[2147483647,0,0,1,1,2,2,3,3,4,4,5,5,6,6],"right_children":[2,4,6,8,10,12,14,-1,-1,-1,-1,-1,-1,-1,-1],"split_conditions":[2.15E1,5.5E0,1.45E1,1.45E1,1.25E1,2.95E1,2.25E1,-3.987973E-4,3.5505306E-2,-2.7007742E-3,-4.4052538E-2,-1.4079695E-2,-1.03319906E-1,-8.09326E-2,-1.0449042E-3],"split_indices":[0,1,5,0,0,4,4,0,0,0,0,0,0,0,0],"split_type":[0,0,0,0,0,0,0,0,0,0,0,0,0,0,0],"sum_hessian":[3.58789E5,3.27664E5,3.1125E4,2.75243E5,5.2421E4,2.5466E4,5.659E3,1.96229E5,7.9014E4,3.1367E4,2.1054E4,2.4472E4,9.94E2,4.919E3,7.4E2],"tree_param":{"num_deleted":"0","num_feature":"7","num_nodes":"15","size_leaf_vector":"0"}},{"base_weights":[1.8360728E-2,-1.1814865E-2,2.6971486E-1,3.2159697E-2,-2.844205E-1,1.4774911E0,-7.044583E-2,-2.6236385E-2,2.0333833E-1,9.630156E-1,-4.6835023E-1,-3.0142137E-1,3.263231E0,2.999657E-1,-6.471797E-1],"categories":[],"categories_nodes":[],"categories_segments":[],"categories_sizes":[],"default_left":[1,1,1,1,1,1,1,0,0,0,0,0,0,0,0],"id":41,"left_children":[1,3,5,7,9,11,13,-1,-1,-1,-1,-1,-1,-1,-1],"loss_changes":[2.718457E3,3.8360173E3,1.5782856E4,2.7544175E3,1.0198857E4,2.6818475E4,6.403719E3,0E0,0E0,0E0,0E0,0E0,0E0,0E0,0E0],"parents":[2147483647,0,0,1,1,2,2,3,3,4,4,5,5,6,6],"right_children":[2,4,6,8,10,12,14,-1,-1,-1,-1,-1,-1,-1,-1],"split_conditions":[1.095E2,9.45E1,1.125E2,7.15E1,5E-1,1.15E1,1.65E1,-2.6236386E-3,2.0333832E-2,9.630156E-2,-4.6835024E-2,-3.0142138E-2,3.2632312E-1,2.9996572E-2,-6.471797E-2],"split_indices":[3,3,3,3,1,0,4,0,0,0,0,0,0,0,0],"split_type":[0,0,0,0,0,0,0,0,0,0,0,0,0,0,0],"sum_hessian":[3.58409E5,3.19994E5,3.8415E4,2.75546E5,4.4448E4,8.441E3,2.9974E4,2.05457E5,7.0089E4,5.711E3,3.8737E4,4.229E3,4.212E3,1.8252E4,1.1722E4],"tree_param":{"num_deleted":"0","num_feature":"7","num_nodes":"15","size_leaf_vector":"0"}},{"base_weights":[1.7064825E-2,4.984237E-2,-2.1090811E-1,-9.508296E-3,2.6380813E-1,-2.2609087E-2,-5.5314344E-1,9.9681355E-2,-5.2204616E-2,1.8536229E0,1.5359014E-1,-1.5014727E-1,6.5148294E-1,-6.155004E-1,2.0128236E0],"categories":[],"categories_nodes":[],"categories_segments":[],"categories_sizes":[],"default_left":[1,1,1,1,1,1,1,0,0,0,0,0,0,0,0],"id":42,"left_children":[1,3,5,7,9,11,13,-1,-1,-1,-1,-1,-1,-1,-1],"loss_changes":[2.680926E3,3.9833901E3,2.906348E3,1.144819E3,1.1935248E4,2.5013809E3,2.5624521E3,0E0,0E0,0E0,0E0,0E0,0E0,0E0,0E0],"parents":[2147483647,0,0,1,1,2,2,3,3,4,4,5,5,6,6],"right_children":[2,4,6,8,10,12,14,-1,-1,-1,-1,-1,-1,-1,-1],"split_conditions":[2.05E1,1.55E1,7.85E1,1.5E0,3.5E0,6.85E1,1.355E2,9.9681355E-3,-5.2204616E-3,1.853623E-1,1.5359014E-2,-1.5014728E-2,6.5148294E-2,-6.155004E-2,2.0128237E-1],"split_indices":[0,0,3,1,4,3,3,0,0,0,0,0,0,0,0],"split_type":[0,0,0,0,0,0,0,0,0,0,0,0,0,0,0],"sum_hessian":[3.58775E5,3.13676E5,4.5099E4,2.45562E5,6.8114E4,2.9093E4,1.6006E4,6.9029E4,1.76533E5,4.415E3,6.3699E4,2.4465E4,4.628E3,1.5627E4,3.79E2],"tree_param":{"num_deleted":"0","num_feature":"7","num_nodes":"15","size_leaf_vector":"0"}},{"base_weights":[1.4194958E-2,1.5962479E-1,-3.3482965E-2,-7.710659E-2,5.538327E-1,-5.622959E-1,2.1927297E-2,2.635486E-1,-1.7170766E-1,3.1326717E-1,2.4123843E0,3.081372E-1,-1.5816752E0,1.1157464E0,-3.8923424E-2],"categories":[],"categories_nodes":[],"categories_segments":[],"categories_sizes":[],"default_left":[1,1,1,1,1,1,1,0,0,0,0,0,0,0,0],"id":43,"left_children":[1,3,5,7,9,11,13,-1,-1,-1,-1,-1,-1,-1,-1],"loss_changes":[2.4871426E3,8.2647705E3,7.915476E3,1.783258E3,1.4856044E4,2.2734037E4,1.6275017E4,0E0,0E0,0E0,0E0,0E0,0E0,0E0,0E0],"parents":[2147483647,0,0,1,1,2,2,3,3,4,4,5,5,6,6],"right_children":[2,4,6,8,10,12,14,-1,-1,-1,-1,-1,-1,-1,-1],"split_conditions":[4.75E1,1.35E1,5.25E1,7.5E0,4.45E1,1.25E1,5.55E1,2.6354862E-2,-1.7170766E-2,3.132672E-2,2.4123843E-1,3.0813722E-2,-1.5816753E-1,1.1157464E-1,-3.8923423E-3],"split_indices":[3,0,3,4,3,0,3,0,0,0,0,0,0,0,0],"split_type":[0,0,0,0,0,0,0,0,0,0,0,0,0,0,0],"sum_hessian":[3.58697E5,8.8561E4,2.70136E5,5.5333E4,3.3228E4,2.562E4,2.44516E5,1.2026E4,4.3307E4,2.9421E4,3.807E3,1.382E4,1.18E4,1.2885E4,2.31631E5],"tree_param":{"num_deleted":"0","num_feature":"7","num_nodes":"15","size_leaf_vector":"0"}},{"base_weights":[1.4628082E-2,-8.796202E-2,8.329379E-2,1.9565046E-1,-3.7424475E-1,-4.494148E-2,2.5536975E-1,-3.730383E-1,3.7693077E-1,7.4435975E-3,-8.2126606E-1,-1.12798095E-1,5.08874E-2,8.640424E-1,5.432303E-2],"categories":[],"categories_nodes":[],"categories_segments":[],"categories_sizes":[],"default_left":[1,1,1,1,1,1,1,0,0,0,0,0,0,0,0],"id":44,"left_children":[1,3,5,7,9,11,13,-1,-1,-1,-1,-1,-1,-1,-1],"loss_changes":[2.5260735E3,1.1673972E4,4.740119E3,7.4461714E3,1.2208581E4,8.0039404E2,1.1224736E4,0E0,0E0,0E0,0E0,0E0,0E0,0E0,0E0],"parents":[2147483647,0,0,1,1,2,2,3,3,4,4,5,5,6,6],"right_children":[2,4,6,8,10,12,14,-1,-1,-1,-1,-1,-1,-1,-1],"split_conditions":[1.25E1,6.55E1,1.25E1,3.75E1,1.25E1,3.5E0,1.65E1,-3.730383E-2,3.769308E-2,7.4435974E-4,-8.212661E-2,-1.1279809E-2,5.08874E-3,8.640424E-2,5.432303E-3],"split_indices":[4,3,0,3,0,1,4,0,0,0,0,0,0,0,0],"split_type":[0,0,0,0,0,0,0,0,0,0,0,0,0,0,0],"sum_hessian":[3.5859E5,1.43778E5,2.14812E5,7.2226E4,7.1552E4,1.23086E5,9.1726E4,1.7458E4,5.4768E4,3.8597E4,3.2955E4,7.206E4,5.1026E4,2.2774E4,6.8952E4],"tree_param":{"num_deleted":"0","num_feature":"7","num_nodes":"15","size_leaf_vector":"0"}},{"base_weights":[1.3464404E-2,4.595195E-2,-2.1187575E-1,8.919178E-3,3.5210073E-1,6.6888785E-1,-2.758047E-1,1.5884122E-1,-4.7988053E-2,1.6657519E0,-8.00194E-3,1.9186565E0,2.1357156E-1,-2.9442123E-1,1.7935421E0],"categories":[],"categories_nodes":[],"categories_segments":[],"categories_sizes":[],"default_left":[1,1,1,1,1,1,1,0,0,0,0,0,0,0,0],"id":45,"left_children":[1,3,5,7,9,11,13,-1,-1,-1,-1,-1,-1,-1,-1],"loss_changes":[2.6268848E3,3.555596E3,2.5460176E3,2.386924E3,1.6008949E4,1.7408525E3,1.6245095E3,0E0,0E0,0E0,0E0,0E0,0E0,0E0,0E0],"parents":[2147483647,0,0,1,1,2,2,3,3,4,4,5,5,6,6],"right_children":[2,4,6,8,10,12,14,-1,-1,-1,-1,-1,-1,-1,-1],"split_conditions":[2.05E1,1.095E2,2.95E1,4.75E1,1.125E2,2.15E1,1.355E2,1.5884122E-2,-4.7988053E-3,1.665752E-1,-8.0019404E-4,1.9186565E-1,2.1357156E-2,-2.9442122E-2,1.7935422E-1],"split_indices":[0,3,3,3,3,0,3,0,0,0,0,0,0,0,0],"split_type":[0,0,0,0,0,0,0,0,0,0,0,0,0,0,0],"sum_hessian":[3.58825E5,3.13612E5,4.5213E4,2.79771E5,3.3841E4,3.059E3,4.2154E4,7.6976E4,2.02795E5,7.28E3,2.6561E4,8.16E2,2.243E3,4.1779E4,3.75E2],"tree_param":{"num_deleted":"0","num_feature":"7","num_nodes":"15","size_leaf_vector":"0"}},{"base_weights":[1.0044877E-2,5.98436E-2,-9.3992084E-2,3.320494E-2,5.6411594E-1,-5.27884E-1,-7.772771E-2,6.002367E-2,-6.6549593E-1,1.3030407E0,3.3288226E-1,1.8675044E-1,-1.17342286E-1],"categories":[],"categories_nodes":[],"categories_segments":[],"categories_sizes":[],"default_left":[1,1,1,1,1,0,1,0,0,0,0,0,0],"id":46,"left_children":[1,3,5,7,9,-1,11,-1,-1,-1,-1,-1,-1],"loss_changes":[1.8592056E3,3.2600698E3,8.197472E2,4.3194736E3,2.080181E3,0E0,1.1731633E3,0E0,0E0,0E0,0E0,0E0,0E0],"parents":[2147483647,0,0,1,1,2,2,3,3,4,4,6,6],"right_children":[2,4,6,8,10,-1,12,-1,-1,-1,-1,-1,-1],"split_conditions":[4.5E0,1.305E2,2.15E1,1.125E2,1.315E2,-5.2788403E-2,3.55E1,6.002367E-3,-6.654959E-2,1.3030408E-1,3.3288226E-2,1.8675044E-2,-1.1734229E-2],"split_indices":[1,3,3,3,3,0,3,0,0,0,0,0,0],"split_type":[0,0,0,0,0,0,0,0,0,0,0,0,0],"sum_hessian":[3.58855E5,2.42689E5,1.16166E5,2.30513E5,1.2176E4,4.196E3,1.1197E5,2.21993E5,8.52E3,2.901E3,9.275E3,1.4586E4,9.7384E4],"tree_param":{"num_deleted":"0","num_feature":"7","num_nodes":"13","size_leaf_vector":"0"}},{"base_weights":[6.808816E-3,2.3497062E-2,-3.5124695E-1,-7.765908E-2,9.094847E-2,-3.2562503E-1,-3.4018536E0,1.9210888E-1,-3.4964153E-1,-4.828499E-2,2.9948142E-1,-4.5785424E-1,-9.286225E-3],"categories":[],"categories_nodes":[],"categories_segments":[],"categories_sizes":[],"default_left":[1,1,1,1,1,1,0,0,0,0,0,0,0],"id":47,"left_children":[1,3,5,7,9,11,-1,-1,-1,-1,-1,-1,-1],"loss_changes":[2.1443188E3,2.3395269E3,1.248006E3,1.0064526E4,5.972814E3,6.6294714E2,0E0,0E0,0E0,0E0,0E0,0E0,0E0],"parents":[2147483647,0,0,1,1,2,2,3,3,4,4,5,5],"right_children":[2,4,6,8,10,12,-1,-1,-1,-1,-1,-1,-1],"split_conditions":[2.25E1,1.25E1,1.355E2,6.55E1,1.25E1,4.5E0,-3.4018537E-1,1.9210888E-2,-3.4964155E-2,-4.828499E-3,2.9948143E-2,-4.5785423E-2,-9.286225E-4],"split_indices":[0,4,3,3,0,1,0,0,0,0,0,0,0],"split_type":[0,0,0,0,0,0,0,0,0,0,0,0,0],"sum_hessian":[3.5886E5,3.4288E5,1.598E4,1.37169E5,2.05711E5,1.5848E4,1.32E2,6.8865E4,6.8304E4,1.23352E5,8.2359E4,1.1176E4,4.672E3],"tree_param":{"num_deleted":"0","num_feature":"7","num_nodes":"13","size_leaf_vector":"0"}},{"base_weights":[1.0770744E-2,3.819775E-2,-1.8006462E-1,-1.5908217E-2,2.3417321E-1,5.944557E-1,-2.3653232E-1,-8.416781E-2,6.809372E-2,1.6922604E0,1.333803E-1,1.7571875E0,1.79483E-1,-2.536921E-1,1.6084657E0],"categories":[],"categories_nodes":[],"categories_segments":[],"categories_sizes":[],"default_left":[1,1,1,1,1,1,1,0,0,0,0,0,0,0,0],"id":48,"left_children":[1,3,5,7,9,11,13,-1,-1,-1,-1,-1,-1,-1,-1],"loss_changes":[1.8760969E3,3.3231118E3,1.9700697E3,1.408232E3,9.964728E3,1.476623E3,1.3295469E3,0E0,0E0,0E0,0E0,0E0,0E0,0E0,0E0],"parents":[2147483647,0,0,1,1,2,2,3,3,4,4,5,5,6,6],"right_children":[2,4,6,8,10,12,14,-1,-1,-1,-1,-1,-1,-1,-1],"split_conditions":[2.05E1,1.55E1,2.95E1,6.95E1,3.5E0,2.15E1,1.355E2,-8.416781E-3,6.809372E-3,1.6922604E-1,1.3338029E-2,1.7571875E-1,1.79483E-2,-2.536921E-2,1.6084658E-1],"split_indices":[0,0,3,3,4,0,3,0,0,0,0,0,0,0,0],"split_type":[0,0,0,0,0,0,0,0,0,0,0,0,0,0,0],"sum_hessian":[3.58439E5,3.13398E5,4.5041E4,2.45594E5,6.7804E4,3.06E3,4.1981E4,1.35493E5,1.10101E5,4.383E3,6.3421E4,8.04E2,2.256E3,4.1595E4,3.86E2],"tree_param":{"num_deleted":"0","num_feature":"7","num_nodes":"15","size_leaf_vector":"0"}},{"base_weights":[6.884584E-3,-1.672107E-2,2.0271116E-1,1.1144747E-2,-3.54342E-1,1.1671357E0,-7.006923E-2,-5.449821E-3,8.6766934E-1,-1.930412E0,-9.3315564E-2,4.397668E-1,1.5399909E0,1.1947396E0,-2.0865665E-1],"categories":[],"categories_nodes":[],"categories_segments":[],"categories_sizes":[],"default_left":[1,1,1,1,1,1,1,0,0,0,0,0,0,0,0],"id":49,"left_children":[1,3,5,7,9,11,13,-1,-1,-1,-1,-1,-1,-1,-1],"loss_changes":[1.6577655E3,3.0109856E3,1.0149294E4,4.202158E3,1.0038294E4,2.3061787E3,5.2718184E3,0E0,0E0,0E0,0E0,0E0,0E0,0E0,0E0],"parents":[2147483647,0,0,1,1,2,2,3,3,4,4,5,5,6,6],"right_children":[2,4,6,8,10,12,14,-1,-1,-1,-1,-1,-1,-1,-1],"split_conditions":[1.095E2,1.015E2,1.125E2,9.95E1,1.025E2,3.5E0,1.15E1,-5.449821E-4,8.6766936E-2,-1.930412E-1,-9.331557E-3,4.397668E-2,1.5399909E-1,1.1947396E-1,-2.0865666E-2],"split_indices":[3,3,3,3,3,1,4,0,0,0,0,0,0,0,0],"split_type":[0,0,0,0,0,0,0,0,0,0,0,0,0,0,0],"sum_hessian":[3.58619E5,3.20041E5,3.8578E4,2.95641E5,2.44E4,8.505E3,3.0073E4,2.90023E5,5.618E3,3.466E3,2.0934E4,2.883E3,5.622E3,2.969E3,2.7104E4],"tree_param":{"num_deleted":"0","num_feature":"7","num_nodes":"15","size_leaf_vector":"0"}},{"base_weights":[8.944829E-3,5.6206204E-2,-8.9837536E-2,2.5633535E-1,-1.521142E-3,1.9777713E-3,-2.0266084E-1,-1.0303565E-1,8.6026615E-1,-9.721553E-1,8.463069E-2,-1.05856024E-1,3.3065047E-2,-1.414838E-1,-8.977299E-1],"categories":[],"categories_nodes":[],"categories_segments":[],"categories_sizes":[],"default_left":[1,1,1,1,1,1,1,0,0,0,0,0,0,0,0],"id":50,"left_children":[1,3,5,7,9,11,13,-1,-1,-1,-1,-1,-1,-1,-1],"loss_changes":[1.6738395E3,2.8016655E3,1.2018926E3,1.1783147E4,1.5739146E4,2.1444417E2,2.2134553E3,0E0,0E0,0E0,0E0,0E0,0E0,0E0,0E0],"parents":[2147483647,0,0,1,1,2,2,3,3,4,4,5,5,6,6],"right_children":[2,4,6,8,10,12,14,-1,-1,-1,-1,-1,-1,-1,-1],"split_conditions":[4.5E0,4.75E1,1.25E1,1.35E1,5.25E1,3.9E1,1.125E2,-1.0303565E-2,8.602662E-2,-9.7215526E-2,8.463069E-3,-1.0585602E-2,3.3065048E-3,-1.414838E-2,-8.977299E-2],"split_indices":[1,3,0,0,3,3,3,0,0,0,0,0,0,0,0],"split_type":[0,0,0,0,0,0,0,0,0,0,0,0,0,0,0],"sum_hessian":[3.5853E5,2.42506E5,1.16024E5,5.429E4,1.88216E5,6.3968E4,5.2056E4,3.4037E4,2.0253E4,1.5343E4,1.72873E5,1.4314E4,4.9654E4,4.7846E4,4.21E3],"tree_param":{"num_deleted":"0","num_feature":"7","num_nodes":"15","size_leaf_vector":"0"}},{"base_weights":[9.61526E-3,4.109856E-2,-1.5093449E-1,-8.812617E-3,2.6695147E-1,2.4230637E-2,-4.3161538E-1,1.05303645E-1,-5.3432126E-2,1.3659168E0,1.0304133E-1,-1.4665581E-1,1.1899309E0,-4.7939712E-1,1.6173434E0],"categories":[],"categories_nodes":[],"categories_segments":[],"categories_sizes":[],"default_left":[1,1,1,1,1,1,1,0,0,0,0,0,0,0,0],"id":51,"left_children":[1,3,5,7,9,11,13,-1,-1,-1,-1,-1,-1,-1,-1],"loss_changes":[1.8123915E3,3.3792417E3,2.8902046E3,1.2501421E3,9.773258E3,7.2107036E3,2.2123022E3,0E0,0E0,0E0,0E0,0E0,0E0,0E0,0E0],"parents":[2147483647,0,0,1,1,2,2,3,3,4,4,5,5,6,6],"right_children":[2,4,6,8,10,12,14,-1,-1,-1,-1,-1,-1,-1,-1],"split_conditions":[1.95E1,1.55E1,7.55E1,1.5E0,5E-1,6.85E1,1.355E2,1.0530365E-2,-5.3432127E-3,1.3659169E-1,1.0304133E-2,-1.4665581E-2,1.18993096E-1,-4.7939714E-2,1.6173434E-1],"split_indices":[0,0,3,1,1,3,3,0,0,0,0,0,0,0,0],"split_type":[0,0,0,0,0,0,0,0,0,0,0,0,0,0,0],"sum_hessian":[3.58558E5,2.99774E5,5.8784E4,2.45518E5,5.4256E4,3.6196E4,2.2588E4,6.9013E4,1.76505E5,7.041E3,4.7215E4,3.1569E4,4.627E3,2.2074E4,5.14E2],"tree_param":{"num_deleted":"0","num_feature":"7","num_nodes":"15","size_leaf_vector":"0"}},{"base_weights":[6.577174E-3,-7.608188E-2,6.1802864E-2,1.5233009E-1,-3.0636704E-1,2.4438986E-1,-2.3584455E-2,-3.8023674E-1,3.2248056E-1,8.582256E-3,-7.450734E-1,-4.5729246E-2,8.4059334E-1,-3.2049695E-1,1.08673066E-1],"categories":[],"categories_nodes":[],"categories_segments":[],"categories_sizes":[],"default_left":[1,1,1,1,1,1,1,0,0,0,0,0,0,0,0],"id":52,"left_children":[1,3,5,7,9,11,13,-1,-1,-1,-1,-1,-1,-1,-1],"loss_changes":[1.6373533E3,7.556546E3,3.3523464E3,6.5357466E3,9.884291E3,1.185108E4,5.753283E3,0E0,0E0,0E0,0E0,0E0,0E0,0E0,0E0],"parents":[2147483647,0,0,1,1,2,2,3,3,4,4,5,5,6,6],"right_children":[2,4,6,8,10,12,14,-1,-1,-1,-1,-1,-1,-1,-1],"split_conditions":[1.25E1,6.55E1,1.75E1,3.75E1,1.35E1,1.45E1,1.5E0,-3.8023677E-2,3.2248057E-2,8.5822557E-4,-7.450734E-2,-4.5729247E-3,8.4059335E-2,-3.2049697E-2,1.0867307E-2],"split_indices":[4,3,4,3,0,0,1,0,0,0,0,0,0,0,0],"split_type":[0,0,0,0,0,0,0,0,0,0,0,0,0,0,0],"sum_hessian":[3.58681E5,1.43659E5,2.15022E5,7.2123E4,7.1536E4,6.8514E4,1.46508E5,1.7463E4,5.466E4,4.1642E4,2.9894E4,4.6088E4,2.2426E4,4.5149E4,1.01359E5],"tree_param":{"num_deleted":"0","num_feature":"7","num_nodes":"15","size_leaf_vector":"0"}},{"base_weights":[5.829267E-3,-1.7890424E-2,1.8995607E-1,1.955713E-2,-3.150396E-1,8.530832E-1,-5.465691E-2,-2.6308358E-2,4.0478835E-1,7.3319715E-3,-6.764887E-1,6.5178555E-1,1.2397668E0,-3.6236048E-1,4.5335633E-1],"categories":[],"categories_nodes":[],"categories_segments":[],"categories_sizes":[],"default_left":[1,1,1,1,1,1,1,0,0,0,0,0,0,0,0],"id":53,"left_children":[1,3,5,7,9,11,13,-1,-1,-1,-1,-1,-1,-1,-1],"loss_changes":[1.5655919E3,3.533669E3,6.6358755E3,4.9829883E3,4.1412744E3,8.572832E2,4.6718687E3,0E0,0E0,0E0,0E0,0E0,0E0,0E0,0E0],"parents":[2147483647,0,0,1,1,2,2,3,3,4,4,5,5,6,6],"right_children":[2,4,6,8,10,12,14,-1,-1,-1,-1,-1,-1,-1,-1],"split_conditions":[2.65E1,2.35E1,2.75E1,1.095E2,2.5E0,2E0,2.5E0,-2.6308359E-3,4.0478837E-2,7.3319714E-4,-6.764887E-2,6.517856E-2,1.23976685E-1,-3.6236048E-2,4.533563E-2],"split_indices":[4,4,4,3,2,1,2,0,0,0,0,0,0,0,0],"split_type":[0,0,0,0,0,0,0,0,0,0,0,0,0,0,0],"sum_hessian":[3.58468E5,3.1756E5,4.0908E4,2.8202E5,3.554E4,1.1023E4,2.9885E4,2.52016E5,3.0004E4,1.8786E4,1.6754E4,7.251E3,3.772E3,1.8612E4,1.1273E4],"tree_param":{"num_deleted":"0","num_feature":"7","num_nodes":"15","size_leaf_vector":"0"}},{"base_weights":[6.556065E-3,2.0846441E-2,-2.9976457E-1,7.144325E-2,-8.413097E-2,-2.7309316E-1,-3.4984698E0,-3.297811E-2,2.3068622E-1,3.9776945E-3,-2.0281452E-1,-4.0683177E-1,5.0855912E-2],"categories":[],"categories_nodes":[],"categories_segments":[],"categories_sizes":[],"default_left":[1,1,1,1,1,1,0,0,0,0,0,0,0],"id":54,"left_children":[1,3,5,7,9,11,-1,-1,-1,-1,-1,-1,-1],"loss_changes":[1.5687046E3,1.8186074E3,1.3617661E3,3.8417427E3,1.164435E3,6.8636755E2,0E0,0E0,0E0,0E0,0E0,0E0,0E0],"parents":[2147483647,0,0,1,1,2,2,3,3,4,4,5,5],"right_children":[2,4,6,8,10,12,-1,-1,-1,-1,-1,-1,-1],"split_conditions":[2.25E1,4.5E0,1.355E2,1.25E1,1.25E1,4.5E0,-3.49847E-1,-3.2978111E-3,2.3068622E-2,3.9776947E-4,-2.0281453E-2,-4.0683176E-2,5.085591E-3],"split_indices":[0,1,3,0,0,1,0,0,0,0,0,0,0],"split_type":[0,0,0,0,0,0,0,0,0,0,0,0,0],"sum_hessian":[3.58359E5,3.42387E5,1.5972E4,2.31034E5,1.11353E5,1.5841E4,1.31E2,1.39536E5,9.1498E4,6.3909E4,4.7444E4,1.1212E4,4.629E3],"tree_param":{"num_deleted":"0","num_feature":"7","num_nodes":"13","size_leaf_vector":"0"}},{"base_weights":[5.722354E-3,3.3777967E-2,-1.3724403E-1,-5.030176E-1,5.000105E-2,6.7771864E-1,-1.9694439E-1,-1.791177E-1,-2.3647454E0,-4.50251E-3,2.9580027E-1,1.3812859E0,1.3075322E-1,-7.0718294E-1,-9.2381865E-2],"categories":[],"categories_nodes":[],"categories_segments":[],"categories_sizes":[],"default_left":[1,1,1,1,1,1,1,0,0,0,0,0,0,0,0],"id":55,"left_children":[1,3,5,7,9,11,13,-1,-1,-1,-1,-1,-1,-1,-1],"loss_changes":[1.4381721E3,2.6102703E3,2.8619363E3,5.3018735E3,3.8977588E3,1.5448999E3,2.9239348E3,0E0,0E0,0E0,0E0,0E0,0E0,0E0,0E0],"parents":[2147483647,0,0,1,1,2,2,3,3,4,4,5,5,6,6],"right_children":[2,4,6,8,10,12,14,-1,-1,-1,-1,-1,-1,-1,-1],"split_conditions":[1.95E1,2.65E1,2.95E1,1.55E1,1.55E1,2.15E1,4.45E1,-1.791177E-2,-2.3647454E-1,-4.50251E-4,2.9580027E-2,1.381286E-1,1.3075322E-2,-7.0718296E-2,-9.238186E-3],"split_indices":[0,3,3,0,0,0,3,0,0,0,0,0,0,0,0],"split_type":[0,0,0,0,0,0,0,0,0,0,0,0,0,0,0],"sum_hessian":[3.58554E5,2.99735E5,5.8819E4,8.792E3,2.90943E5,4.014E3,5.4805E4,7.49E3,1.302E3,2.38139E5,5.2804E4,1.755E3,2.259E3,9.32E3,4.5485E4],"tree_param":{"num_deleted":"0","num_feature":"7","num_nodes":"15","size_leaf_vector":"0"}},{"base_weights":[4.3192655E-3,1.6082017E-1,-2.2630848E-2,-5.32472E-2,1.5318036E0,-1.21282004E-1,6.328095E-2,6.480182E-2,-1.0453353E0,2.6993918E0,7.068446E-1,3.5791332E-3,-8.83754E-1,5.103167E-1,-3.4973945E-2],"categories":[],"categories_nodes":[],"categories_segments":[],"categories_sizes":[],"default_left":[1,1,1,1,1,1,1,0,0,0,0,0,0,0,0],"id":56,"left_children":[1,3,5,7,9,11,13,-1,-1,-1,-1,-1,-1,-1,-1],"loss_changes":[1.5123124E3,1.5459289E4,2.5924912E3,5.3360625E3,6.8503867E3,1.3555691E4,7.1815464E3,0E0,0E0,0E0,0E0,0E0,0E0,0E0,0E0],"parents":[2147483647,0,0,1,1,2,2,3,3,4,4,5,5,6,6],"right_children":[2,4,6,8,10,12,14,-1,-1,-1,-1,-1,-1,-1,-1],"split_conditions":[3.95E1,3.75E1,6.95E1,3.65E1,1.5E0,6.55E1,7.65E1,6.480182E-3,-1.0453353E-1,2.6993918E-1,7.068446E-2,3.5791332E-4,-8.8375404E-2,5.1031675E-2,-3.4973945E-3],"split_indices":[3,3,3,3,1,3,3,0,0,0,0,0,0,0,0],"split_type":[0,0,0,0,0,0,0,0,0,0,0,0,0,0,0],"sum_hessian":[3.5856E5,5.2674E4,3.05886E5,4.5561E4,7.113E3,1.42386E5,1.635E5,4.0717E4,4.844E3,2.944E3,4.169E3,1.22351E5,2.0035E4,2.946E4,1.3404E5],"tree_param":{"num_deleted":"0","num_feature":"7","num_nodes":"15","size_leaf_vector":"0"}},{"base_weights":[4.828271E-3,-3.3394217E-1,1.5465183E-2,4.99672E-1,-4.7282732E-1,1.1112002E0,3.32055E-3,1.7451746E0,-5.4347392E-2,7.898175E-1,-5.7110786E-1,-3.3257958E-1,3.361936E0,3.4253575E-2,-1.5545553E-1],"categories":[],"categories_nodes":[],"categories_segments":[],"categories_sizes":[],"default_left":[1,1,1,1,1,1,1,0,0,0,0,0,0,0,0],"id":57,"left_children":[1,3,5,7,9,11,13,-1,-1,-1,-1,-1,-1,-1,-1],"loss_changes":[1.2917596E3,1.2637067E3,4.6251216E3,1.0758557E3,1.1613447E3,1.2381969E4,1.688327E3,0E0,0E0,0E0,0E0,0E0,0E0,0E0,0E0],"parents":[2147483647,0,0,1,1,2,2,3,3,4,4,5,5,6,6],"right_children":[2,4,6,8,10,12,14,-1,-1,-1,-1,-1,-1,-1,-1],"split_conditions":[2.65E1,2.5E0,2.75E1,4E0,2.05E1,1.25E1,1.95E1,1.7451747E-1,-5.4347394E-3,7.898175E-2,-5.7110786E-2,-3.3257958E-2,3.3619362E-1,3.4253576E-3,-1.55455535E-2],"split_indices":[3,0,3,1,3,0,0,0,0,0,0,0,0,0,0],"split_type":[0,0,0,0,0,0,0,0,0,0,0,0,0,0,0],"sum_hessian":[3.58474E5,1.0912E4,3.47562E5,1.558E3,9.354E3,3.809E3,3.43753E5,4.79E2,1.079E3,6.75E2,8.679E3,2.321E3,1.488E3,2.87703E5,5.605E4],"tree_param":{"num_deleted":"0","num_feature":"7","num_nodes":"15","size_leaf_vector":"0"}},{"base_weights":[3.2218935E-3,-1.6646374E-2,1.6831098E-1,-4.138451E-3,-6.859804E-1,1.0293789E0,-7.39738E-2,-1.543722E-2,1.177374E0,3.419028E-1,-2.5210214E0,-4.6956894E-1,2.8304234E0,-4.7697803E-1,1.7191239E-1],"categories":[],"categories_nodes":[],"categories_segments":[],"categories_sizes":[],"default_left":[1,1,1,1,1,1,1,0,0,0,0,0,0,0,0],"id":58,"left_children":[1,3,5,7,9,11,13,-1,-1,-1,-1,-1,-1,-1,-1],"loss_changes":[1.1760951E3,2.679407E3,8.035633E3,4.1941406E3,1.1074787E4,2.2835152E4,2.9788228E3,0E0,0E0,0E0,0E0,0E0,0E0,0E0,0E0],"parents":[2147483647,0,0,1,1,2,2,3,3,4,4,5,5,6,6],"right_children":[2,4,6,8,10,12,14,-1,-1,-1,-1,-1,-1,-1,-1],"split_conditions":[1.095E2,1.075E2,1.125E2,1.065E2,1.55E1,1.25E1,1.305E2,-1.543722E-3,1.17737405E-1,3.419028E-2,-2.5210214E-1,-4.6956893E-2,2.8304234E-1,-4.7697805E-2,1.7191239E-2],"split_indices":[3,3,3,3,0,0,3,0,0,0,0,0,0,0,0],"split_type":[0,0,0,0,0,0,0,0,0,0,0,0,0,0,0],"sum_hessian":[3.5856E5,3.20044E5,3.8516E4,3.14174E5,5.87E3,8.457E3,3.0059E4,3.11199E5,2.975E3,3.763E3,2.107E3,4.616E3,3.841E3,1.139E4,1.8669E4],"tree_param":{"num_deleted":"0","num_feature":"7","num_nodes":"15","size_leaf_vector":"0"}},{"base_weights":[4.1057854E-3,1.7750232E-1,-1.6055273E-2,-9.998292E-1,2.2653645E-1,-2.1813145E-1,3.143922E-2,4.4344234E-1,-2.2646686E-2,1.5779465E-1,-6.157966E-1,9.466029E-2,-1.0068159E-1],"categories":[],"categories_nodes":[],"categories_segments":[],"categories_sizes":[],"default_left":[1,1,1,0,1,1,1,0,0,0,0,0,0],"id":59,"left_children":[1,3,5,-1,7,9,11,-1,-1,-1,-1,-1,-1],"loss_changes":[1.2539181E3,2.1570552E3,3.0839348E3,0E0,1.93865E3,9.141576E3,2.173221E3,0E0,0E0,0E0,0E0,0E0,0E0],"parents":[2147483647,0,0,1,1,2,2,4,4,5,5,6,6],"right_children":[2,4,6,-1,8,10,12,-1,-1,-1,-1,-1,-1],"split_conditions":[4.5E0,3.3E1,9.5E0,-9.998292E-2,6.25E1,6.55E1,4.5E0,4.4344235E-2,-2.2646687E-3,1.5779465E-2,-6.1579663E-2,9.466029E-3,-1.0068159E-2],"split_indices":[4,3,4,0,3,3,1,0,0,0,0,0,0],"split_type":[0,0,0,0,0,0,0,0,0,0,0,0,0],"sum_hessian":[3.58685E5,3.736E4,3.21325E5,1.493E3,3.5867E4,6.1149E4,2.60176E5,1.9175E4,1.6692E4,3.1434E4,2.9715E4,1.75972E5,8.4204E4],"tree_param":{"num_deleted":"0","num_feature":"7","num_nodes":"13","size_leaf_vector":"0"}},{"base_weights":[1.4267714E-3,1.3077967E-1,-2.0860864E-2,-6.331378E-2,1.3641267E0,1.8445468E-1,-5.4436266E-2,-3.0860516E-1,3.3671573E-1,2.4348598E0,6.08635E-1,-5.572936E-1,4.0570605E-1,-9.276949E-2,2.1508978E-1],"categories":[],"categories_nodes":[],"categories_segments":[],"categories_sizes":[],"default_left":[1,1,1,1,1,1,1,0,0,0,0,0,0,0,0],"id":60,"left_children":[1,3,5,7,9,11,13,-1,-1,-1,-1,-1,-1,-1,-1],"loss_changes":[1.0340319E3,1.2619483E4,2.1091128E3,4.4695444E3,5.7969277E3,7.057242E3,2.7167983E3,0E0,0E0,0E0,0E0,0E0,0E0,0E0,0E0],"parents":[2147483647,0,0,1,1,2,2,3,3,4,4,5,5,6,6],"right_children":[2,4,6,8,10,12,14,-1,-1,-1,-1,-1,-1,-1,-1],"split_conditions":[3.95E1,3.75E1,5E-1,2.65E1,1.5E0,5.45E1,1.095E2,-3.0860517E-2,3.3671573E-2,2.4348597E-1,6.0863502E-2,-5.572936E-2,4.0570606E-2,-9.276949E-3,2.1508979E-2],"split_indices":[3,3,1,4,1,3,3,0,0,0,0,0,0,0,0],"split_type":[0,0,0,0,0,0,0,0,0,0,0,0,0,0,0],"sum_hessian":[3.58667E5,5.2715E4,3.05952E5,4.5548E4,7.167E3,4.3E4,2.62952E5,2.8235E4,1.7313E4,2.964E3,4.203E3,9.879E3,3.3121E4,2.30211E5,3.2741E4],"tree_param":{"num_deleted":"0","num_feature":"7","num_nodes":"15","size_leaf_vector":"0"}},{"base_weights":[4.767814E-3,1.6749734E-1,-1.4151871E-2,-1.23348124E-1,6.3046587E-1,-2.0342855E-1,3.0366797E-2,-9.1066074E-1,-6.663025E-2,1.621636E0,-2.0717521E-1,1.7356813E-1,-6.802023E-1,-5.5523902E-2,1.251306E-1],"categories":[],"categories_nodes":[],"categories_segments":[],"categories_sizes":[],"default_left":[1,1,1,1,1,1,1,0,0,0,0,0,0,0,0],"id":61,"left_children":[1,3,5,7,9,11,13,-1,-1,-1,-1,-1,-1,-1,-1],"loss_changes":[1.1044387E3,5.0310913E3,2.7079138E3,1.0246753E3,1.1969145E4,1.0999078E4,2.1176162E3,0E0,0E0,0E0,0E0,0E0,0E0,0E0,0E0],"parents":[2147483647,0,0,1,1,2,2,3,3,4,4,5,5,6,6],"right_children":[2,4,6,8,10,12,14,-1,-1,-1,-1,-1,-1,-1,-1],"split_conditions":[4.5E0,1.35E1,9.5E0,3.45E1,1.85E1,1.25E1,1.15E1,-9.106608E-2,-6.6630254E-3,1.621636E-1,-2.0717522E-2,1.7356813E-2,-6.802023E-2,-5.55239E-3,1.2513059E-2],"split_indices":[4,0,4,3,0,0,0,0,0,0,0,0,0,0,0],"split_type":[0,0,0,0,0,0,0,0,0,0,0,0,0,0,0],"sum_hessian":[3.58723E5,3.7362E4,3.21361E5,2.2947E4,1.4415E4,6.1192E4,2.60169E5,1.541E3,2.1406E4,6.602E3,7.813E3,3.4172E4,2.702E4,1.36474E5,1.23695E5],"tree_param":{"num_deleted":"0","num_feature":"7","num_nodes":"15","size_leaf_vector":"0"}},{"base_weights":[3.0393782E-3,1.48162255E-2,-2.4798901E-1,1.797044E0,1.2431214E-2,-2.1161619E-1,-2.3929253E0,3.066971E0,-6.810646E-1,-3.6900723E-1,2.371178E-2,-2.941449E-1,2.7653962E-1,-1.5854928E0,-3.1885254E0],"categories":[],"categories_nodes":[],"categories_segments":[],"categories_sizes":[],"default_left":[1,1,1,1,1,1,1,0,0,0,0,0,0,0,0],"id":62,"left_children":[1,3,5,7,9,11,13,-1,-1,-1,-1,-1,-1,-1,-1],"loss_changes":[1.0606909E3,1.4567083E3,1.2538577E3,1.4434226E3,1.472665E3,6.3705695E2,1.6710596E2,0E0,0E0,0E0,0E0,0E0,0E0,0E0,0E0],"parents":[2147483647,0,0,1,1,2,2,3,3,4,4,5,5,6,6],"right_children":[2,4,6,8,10,12,14,-1,-1,-1,-1,-1,-1,-1,-1],"split_conditions":[2.25E1,2.05E1,1.345E2,2.15E1,2.65E1,5.5E0,5E-1,3.066971E-1,-6.8106465E-2,-3.6900725E-2,2.371178E-3,-2.941449E-2,2.7653962E-2,-1.585493E-1,-3.1885254E-1],"split_indices":[0,3,3,0,3,1,1,0,0,0,0,0,0,0,0],"split_type":[0,0,0,0,0,0,0,0,0,0,0,0,0,0,0],"sum_hessian":[3.58785E5,3.42708E5,1.6077E4,4.57E2,3.42251E5,1.581E4,2.67E2,3.02E2,1.55E2,9.83E3,3.32421E5,1.3524E4,2.286E3,1.34E2,1.33E2],"tree_param":{"num_deleted":"0","num_feature":"7","num_nodes":"15","size_leaf_vector":"0"}},{"base_weights":[4.0326606E-5,1.477811E-1,-1.709572E-2,-1.13482796E-1,5.6439656E-1,-1.6661127E-1,2.7122071E-2,-2.157308E-1,1.3925737E-1,1.4502058E0,-1.7772071E-1,1.2100516E-1,-5.360417E-1,8.7797575E-2,-9.092076E-2],"categories":[],"categories_nodes":[],"categories_segments":[],"categories_sizes":[],"default_left":[1,1,1,1,1,1,1,0,0,0,0,0,0,0,0],"id":63,"left_children":[1,3,5,7,9,11,13,-1,-1,-1,-1,-1,-1,-1,-1],"loss_changes":[9.0808026E2,4.0577559E3,2.124899E3,5.92126E2,9.445412E3,7.7946646E3,1.7766115E3,0E0,0E0,0E0,0E0,0E0,0E0,0E0,0E0],"parents":[2147483647,0,0,1,1,2,2,3,3,4,4,5,5,6,6],"right_children":[2,4,6,8,10,12,14,-1,-1,-1,-1,-1,-1,-1,-1],"split_conditions":[4.5E0,1.35E1,1.05E1,3.5E0,1.85E1,1.25E1,4.5E0,-2.157308E-2,1.3925738E-2,1.4502059E-1,-1.7772071E-2,1.2100517E-2,-5.3604167E-2,8.779758E-3,-9.092077E-3],"split_indices":[4,0,4,2,0,0,1,0,0,0,0,0,0,0,0],"split_type":[0,0,0,0,0,0,0,0,0,0,0,0,0,0,0],"sum_hessian":[3.58683E5,3.7278E4,3.21405E5,2.2911E4,1.4367E4,7.3357E4,2.48048E5,1.6312E4,6.599E3,6.549E3,7.818E3,4.1246E4,3.2111E4,1.63835E5,8.4213E4],"tree_param":{"num_deleted":"0","num_feature":"7","num_nodes":"15","size_leaf_vector":"0"}},{"base_weights":[1.6398196E-3,7.713034E-2,-3.9896898E-2,-2.462709E-2,9.81648E-1,3.5874665E-1,-1.063812E-1,5.470357E-2,-8.21709E-1,-5.621911E-1,3.8503234E0,-1.3553347E-1,1.3480372E0,-1.0952839E-2,-4.145849E-1],"categories":[],"categories_nodes":[],"categories_segments":[],"categories_sizes":[],"default_left":[1,1,1,1,1,1,1,0,0,0,0,0,0,0,0],"id":64,"left_children":[1,3,5,7,9,11,13,-1,-1,-1,-1,-1,-1,-1,-1],"loss_changes":[1.124104E3,1.1711464E4,6.1290605E3,7.2323223E3,5.6987195E4,1.6163637E4,5.829301E3,0E0,0E0,0E0,0E0,0E0,0E0,0E0,0E0],"parents":[2147483647,0,0,1,1,2,2,3,3,4,4,5,5,6,6],"right_children":[2,4,6,8,10,12,14,-1,-1,-1,-1,-1,-1,-1,-1],"split_conditions":[5.55E1,5.25E1,5E-1,5.05E1,1.25E1,1.45E1,2.25E1,5.4703574E-3,-8.2170896E-2,-5.6219112E-2,3.8503236E-1,-1.35533465E-2,1.3480373E-1,-1.0952839E-3,-4.145849E-2],"split_indices":[3,3,1,3,0,0,4,0,0,0,0,0,0,0,0],"split_type":[0,0,0,0,0,0,0,0,0,0,0,0,0,0,0],"sum_hessian":[3.58492E5,1.2724E5,2.31252E5,1.14374E5,1.2866E4,3.3054E4,1.98198E5,1.04022E5,1.0352E4,8.365E3,4.501E3,2.2042E4,1.1012E4,1.5134E5,4.6858E4],"tree_param":{"num_deleted":"0","num_feature":"7","num_nodes":"15","size_leaf_vector":"0"}},{"base_weights":[2.14794E-3,1.3334133E-1,-2.050055E-2,-4.47458E-2,1.2739044E0,-9.950224E-2,4.834806E-2,5.994418E-2,-9.1750985E-1,2.2598274E0,5.7109284E-1,-4.160216E-2,-1.6564348E0,4.5385137E-1,-4.087707E-2],"categories":[],"categories_nodes":[],"categories_segments":[],"categories_sizes":[],"default_left":[1,1,1,1,1,1,1,0,0,0,0,0,0,0,0],"id":65,"left_children":[1,3,5,7,9,11,13,-1,-1,-1,-1,-1,-1,-1,-1],"loss_changes":[1.0655432E3,1.0723553E4,1.6633751E3,4.17245E3,4.939216E3,1.2837427E4,5.9122974E3,0E0,0E0,0E0,0E0,0E0,0E0,0E0,0E0],"parents":[2147483647,0,0,1,1,2,2,3,3,4,4,5,5,6,6],"right_children":[2,4,6,8,10,12,14,-1,-1,-1,-1,-1,-1,-1,-1],"split_conditions":[3.95E1,3.75E1,6.95E1,3.65E1,1.5E0,2.75E1,7.65E1,5.994418E-3,-9.175099E-2,2.2598274E-1,5.7109285E-2,-4.160216E-3,-1.6564348E-1,4.5385137E-2,-4.087707E-3],"split_indices":[3,3,3,3,1,4,3,0,0,0,0,0,0,0,0],"split_type":[0,0,0,0,0,0,0,0,0,0,0,0,0,0,0],"sum_hessian":[3.58606E5,5.2793E4,3.05813E5,4.5664E4,7.129E3,1.42406E5,1.63407E5,4.0774E4,4.89E3,2.966E3,4.163E3,1.37301E5,5.105E3,2.947E4,1.33937E5],"tree_param":{"num_deleted":"0","num_feature":"7","num_nodes":"15","size_leaf_vector":"0"}},{"base_weights":[-9.144044E-4,1.9210221E-2,-1.4120889E-1,-4.758956E-3,2.1756932E-1,-4.555928E-2,-5.58228E-1,2.1392902E-2,-3.194098E-1,1.1755021E0,-4.631967E-2,-3.3296764E-1,5.849041E-2,-6.451381E-1,1.2800514E0],"categories":[],"categories_nodes":[],"categories_segments":[],"categories_sizes":[],"default_left":[1,1,1,1,1,1,1,0,0,0,0,0,0,0,0],"id":66,"left_children":[1,3,5,7,9,11,13,-1,-1,-1,-1,-1,-1,-1,-1],"loss_changes":[1.01184357E3,1.4901672E3,1.7932864E3,2.3010237E3,8.541758E3,1.093696E3,1.3409346E3,0E0,0E0,0E0,0E0,0E0,0E0,0E0,0E0],"parents":[2147483647,0,0,1,1,2,2,3,3,4,4,5,5,6,6],"right_children":[2,4,6,8,10,12,14,-1,-1,-1,-1,-1,-1,-1,-1],"split_conditions":[2.05E1,1.095E2,9.95E1,1.015E2,1.125E2,1.5E0,1.355E2,2.1392903E-3,-3.1940978E-2,1.1755021E-1,-4.6319673E-3,-3.3296764E-2,5.849041E-3,-6.451381E-2,1.2800513E-1],"split_indices":[0,3,3,3,3,1,3,0,0,0,0,0,0,0,0],"split_type":[0,0,0,0,0,0,0,0,0,0,0,0,0,0,0],"sum_hessian":[3.58379E5,3.13421E5,4.4958E4,2.79632E5,3.3789E4,3.6571E4,8.387E3,2.58175E5,2.1457E4,7.297E3,2.6492E4,9.72E3,2.6851E4,8.009E3,3.78E2],"tree_param":{"num_deleted":"0","num_feature":"7","num_nodes":"15","size_leaf_vector":"0"}},{"base_weights":[1.1010995E-3,2.312398E-2,-1.11120366E-1,-1.2533169E-2,1.847189E-1,-4.4677794E-1,2.014229E-2,8.7232E-2,-5.1683124E-2,1.08767E0,5.088493E-2,-5.066799E-1,1.3986009E0,2.54292E-1,-3.674709E-1],"categories":[],"categories_nodes":[],"categories_segments":[],"categories_sizes":[],"default_left":[1,1,1,1,1,1,1,0,0,0,0,0,0,0,0],"id":67,"left_children":[1,3,5,7,9,11,13,-1,-1,-1,-1,-1,-1,-1,-1],"loss_changes":[8.858729E2,1.7265381E3,2.5908281E3,9.587851E2,6.545664E3,1.8280754E3,3.8367703E3,0E0,0E0,0E0,0E0,0E0,0E0,0E0,0E0],"parents":[2147483647,0,0,1,1,2,2,3,3,4,4,5,5,6,6],"right_children":[2,4,6,8,10,12,14,-1,-1,-1,-1,-1,-1,-1,-1],"split_conditions":[1.95E1,1.55E1,1.5E0,1.5E0,5E-1,1.355E2,7.55E1,8.7232E-3,-5.1683127E-3,1.08766995E-1,5.0884928E-3,-5.066799E-2,1.398601E-1,2.5429202E-2,-3.674709E-2],"split_indices":[0,0,1,1,1,3,3,0,0,0,0,0,0,0,0],"split_type":[0,0,0,0,0,0,0,0,0,0,0,0,0,0,0],"sum_hessian":[3.58442E5,2.9964E5,5.8802E4,2.45475E5,5.4165E4,1.653E4,4.2272E4,6.9181E4,1.76294E5,6.991E3,4.7174E4,1.6011E4,5.19E2,2.6353E4,1.5919E4],"tree_param":{"num_deleted":"0","num_feature":"7","num_nodes":"15","size_leaf_vector":"0"}},{"base_weights":[5.758292E-4,-1.733475E-2,1.3937199E-1,1.1848614E-2,-2.4774861E-1,-8.645197E-2,5.718914E-1,-1.9558873E-2,3.071998E-1,3.3631045E-2,-7.5929004E-1,2.3876207E-1,-1.4814051E0,-7.26056E-2,1.3360592E0],"categories":[],"categories_nodes":[],"categories_segments":[],"categories_sizes":[],"default_left":[1,1,1,1,1,1,1,0,0,0,0,0,0,0,0],"id":68,"left_children":[1,3,5,7,9,11,13,-1,-1,-1,-1,-1,-1,-1,-1],"loss_changes":[8.9126184E2,2.1352688E3,4.0024062E3,2.614514E3,5.138302E3,1.2213743E4,6.922731E3,0E0,0E0,0E0,0E0,0E0,0E0,0E0,0E0],"parents":[2147483647,0,0,1,1,2,2,3,3,4,4,5,5,6,6],"right_children":[2,4,6,8,10,12,14,-1,-1,-1,-1,-1,-1,-1,-1],"split_conditions":[2.65E1,2.35E1,2.5E0,1.105E2,1.45E1,5.85E1,1.25E1,-1.9558873E-3,3.071998E-2,3.3631045E-3,-7.592901E-2,2.3876207E-2,-1.4814052E-1,-7.2605605E-3,1.3360593E-1],"split_indices":[4,4,2,3,0,3,0,0,0,0,0,0,0,0,0],"split_type":[0,0,0,0,0,0,0,0,0,0,0,0,0,0,0],"sum_hessian":[3.58522E5,3.17546E5,4.0976E4,2.81849E5,3.5697E4,2.6921E4,1.4055E4,2.54759E5,2.709E4,2.303E4,1.2667E4,2.1832E4,5.089E3,7.625E3,6.43E3],"tree_param":{"num_deleted":"0","num_feature":"7","num_nodes":"15","size_leaf_vector":"0"}},{"base_weights":[1.4327922E-3,-6.1076395E-2,4.323253E-2,1.10341825E-1,-2.3408203E-1,8.0251314E-2,-2.5020373E-1,-6.3787796E-2,3.9927995E-1,3.895759E-2,-6.137337E-1,4.8339285E-2,1.1259177E0,8.161362E-2,-8.6220247E-1],"categories":[],"categories_nodes":[],"categories_segments":[],"categories_sizes":[],"default_left":[1,1,1,1,1,1,1,0,0,0,0,0,0,0,0],"id":69,"left_children":[1,3,5,7,9,11,13,-1,-1,-1,-1,-1,-1,-1,-1],"loss_changes":[9.3744476E2,4.2638335E3,2.3355557E3,3.6335574E3,7.4175156E3,6.3708516E3,4.891258E3,0E0,0E0,0E0,0E0,0E0,0E0,0E0,0E0],"parents":[2147483647,0,0,1,1,2,2,3,3,4,4,5,5,6,6],"right_children":[2,4,6,8,10,12,14,-1,-1,-1,-1,-1,-1,-1,-1],"split_conditions":[1.25E1,6.55E1,1.125E2,1.35E1,1.35E1,1.105E2,1.45E1,-6.3787797E-3,3.9927997E-2,3.895759E-3,-6.137337E-2,4.833929E-3,1.12591766E-1,8.161362E-3,-8.622025E-2],"split_indices":[4,3,3,0,0,3,0,0,0,0,0,0,0,0,0],"split_type":[0,0,0,0,0,0,0,0,0,0,0,0,0,0,0],"sum_hessian":[3.58778E5,1.43773E5,2.15005E5,7.2218E4,7.1555E4,1.9092E5,2.4085E4,4.5062E4,2.7156E4,4.1622E4,2.9933E4,1.85267E5,5.653E3,1.5618E4,8.467E3],"tree_param":{"num_deleted":"0","num_feature":"7","num_nodes":"15","size_leaf_vector":"0"}},{"base_weights":[1.8643647E-3,-1.511363E-2,1.3327362E-1,-2.5606427E-1,8.514504E-3,-6.9725305E-2,5.221508E-1,-6.402013E-1,-2.3721308E-2,2.0150778E0,-1.2312139E-2,2.2593458E-1,-1.3216484E0,-7.0440084E-2,1.2215456E0],"categories":[],"categories_nodes":[],"categories_segments":[],"categories_sizes":[],"default_left":[1,1,1,1,1,1,1,0,0,0,0,0,0,0,0],"id":70,"left_children":[1,3,5,7,9,11,13,-1,-1,-1,-1,-1,-1,-1,-1],"loss_changes":[8.006087E2,1.8092373E3,3.241223E3,2.5329434E3,1.2094421E4,9.985658E3,5.836441E3,0E0,0E0,0E0,0E0,0E0,0E0,0E0,0E0],"parents":[2147483647,0,0,1,1,2,2,3,3,4,4,5,5,6,6],"right_children":[2,4,6,8,10,12,14,-1,-1,-1,-1,-1,-1,-1,-1],"split_conditions":[2.65E1,3.75E1,2.5E0,3.5E0,3.85E1,5.85E1,1.25E1,-6.402013E-2,-2.3721308E-3,2.0150779E-1,-1.2312139E-3,2.259346E-2,-1.3216484E-1,-7.0440085E-3,1.22154556E-1],"split_indices":[4,3,2,1,3,3,0,0,0,0,0,0,0,0,0],"split_type":[0,0,0,0,0,0,0,0,0,0,0,0,0,0,0],"sum_hessian":[3.58844E5,3.17787E5,4.1057E4,2.8379E4,2.89408E5,2.6976E4,1.4081E4,1.0695E4,1.7684E4,2.972E3,2.86436E5,2.1823E4,5.153E3,7.623E3,6.458E3],"tree_param":{"num_deleted":"0","num_feature":"7","num_nodes":"15","size_leaf_vector":"0"}},{"base_weights":[-3.1126733E-4,1.3348392E-1,-1.5865903E-2,-8.462531E-2,4.819825E-1,-1.7317161E-1,2.1176495E-2,-1.7489381E-1,1.3805066E-1,1.2695445E0,-1.8094969E-1,1.3873988E-1,-5.6861556E-1,3.7525214E-2,-3.2809868E-1],"categories":[],"categories_nodes":[],"categories_segments":[],"categories_sizes":[],"default_left":[1,1,1,1,1,1,1,0,0,0,0,0,0,0,0],"id":71,"left_children":[1,3,5,7,9,11,13,-1,-1,-1,-1,-1,-1,-1,-1],"loss_changes":[7.468779E2,2.841095E3,1.8733954E3,4.621375E2,7.5122065E3,7.5583228E3,1.4859554E3,0E0,0E0,0E0,0E0,0E0,0E0,0E0,0E0],"parents":[2147483647,0,0,1,1,2,2,3,3,4,4,5,5,6,6],"right_children":[2,4,6,8,10,12,14,-1,-1,-1,-1,-1,-1,-1,-1],"split_conditions":[4.5E0,1.35E1,9.5E0,3.5E0,1.85E1,1.25E1,2.25E1,-1.7489381E-2,1.3805066E-2,1.2695445E-1,-1.809497E-2,1.3873989E-2,-5.6861557E-2,3.7525215E-3,-3.280987E-2],"split_indices":[4,0,4,2,0,0,0,0,0,0,0,0,0,0,0],"split_type":[0,0,0,0,0,0,0,0,0,0,0,0,0,0,0],"sum_hessian":[3.58878E5,3.7376E4,3.21502E5,2.2989E4,1.4387E4,6.1277E4,2.60225E5,1.6358E4,6.631E3,6.575E3,7.812E3,3.4257E4,2.702E4,2.4859E5,1.1635E4],"tree_param":{"num_deleted":"0","num_feature":"7","num_nodes":"15","size_leaf_vector":"0"}},{"base_weights":[-9.103905E-6,1.25933E-1,-1.4686874E-2,-7.692262E-2,4.474816E-1,-1.3982323E-1,2.2313397E-2,-7.222081E-1,-3.1665947E-2,1.2234805E0,-3.5731283E-1,9.217162E-2,-4.3852445E-1,-9.2291616E-2,7.769719E-2],"categories":[],"categories_nodes":[],"categories_segments":[],"categories_sizes":[],"default_left":[1,1,1,1,1,1,1,0,0,0,0,0,0,0,0],"id":72,"left_children":[1,3,5,7,9,11,13,-1,-1,-1,-1,-1,-1,-1,-1],"loss_changes":[6.623704E2,2.4396248E3,1.4858788E3,6.6972955E2,9.035985E3,5.0750166E3,1.572122E3,0E0,0E0,0E0,0E0,0E0,0E0,0E0,0E0],"parents":[2147483647,0,0,1,1,2,2,3,3,4,4,5,5,6,6],"right_children":[2,4,6,8,10,12,14,-1,-1,-1,-1,-1,-1,-1,-1],"split_conditions":[4.5E0,1.35E1,1.05E1,3.45E1,6.25E1,1.25E1,5.25E1,-7.222081E-2,-3.1665948E-3,1.2234805E-1,-3.5731282E-2,9.217162E-3,-4.3852445E-2,-9.229162E-3,7.7697188E-3],"split_indices":[4,0,4,3,3,0,3,0,0,0,0,0,0,0,0],"split_type":[0,0,0,0,0,0,0,0,0,0,0,0,0,0,0],"sum_hessian":[3.58317E5,3.74E4,3.20917E5,2.2933E4,1.4467E4,7.3234E4,2.47683E5,1.502E3,2.1431E4,7.365E3,7.102E3,4.122E4,3.2014E4,8.0697E4,1.66986E5],"tree_param":{"num_deleted":"0","num_feature":"7","num_nodes":"15","size_leaf_vector":"0"}},{"base_weights":[8.1230263E-4,5.8810122E-2,-3.100595E-2,-3.339668E-2,8.757541E-1,4.731472E-2,-2.711756E-1,3.6544148E-2,-7.335372E-1,-5.097256E-1,3.452152E0,-1.0366546E-2,8.8232625E-1,1.0019353E-1,-7.3318434E-1],"categories":[],"categories_nodes":[],"categories_segments":[],"categories_sizes":[],"default_left":[1,1,1,1,1,1,1,0,0,0,0,0,0,0,0],"id":73,"left_children":[1,3,5,7,9,11,13,-1,-1,-1,-1,-1,-1,-1,-1],"loss_changes":[6.616385E2,9.567789E3,4.35498E3,5.5889873E3,4.5984664E4,8.408956E3,9.768569E3,0E0,0E0,0E0,0E0,0E0,0E0,0E0,0E0],"parents":[2147483647,0,0,1,1,2,2,3,3,4,4,5,5,6,6],"right_children":[2,4,6,8,10,12,14,-1,-1,-1,-1,-1,-1,-1,-1],"split_conditions":[5.55E1,5.25E1,2.25E1,5.05E1,1.25E1,2.05E1,1.25E1,3.6544148E-3,-7.335372E-2,-5.097256E-2,3.452152E-1,-1.0366546E-3,8.823263E-2,1.0019354E-2,-7.331844E-2],"split_indices":[3,3,4,3,0,4,0,0,0,0,0,0,0,0,0],"split_type":[0,0,0,0,0,0,0,0,0,0,0,0,0,0,0],"sum_hessian":[3.58534E5,1.27014E5,2.3152E5,1.14133E5,1.2881E4,1.74587E5,5.6933E4,1.03768E5,1.0365E4,8.377E3,4.504E3,1.63307E5,1.128E4,3.1563E4,2.537E4],"tree_param":{"num_deleted":"0","num_feature":"7","num_nodes":"15","size_leaf_vector":"0"}},{"base_weights":[2.2607134E-3,-1.3519724E-2,1.2427733E-1,3.9118852E-2,-1.1814093E-1,5.6420773E-1,-3.915598E-2,-1.9514253E-2,3.598673E-1,-1.4842774E0,-3.2134473E-2,-2.7655798E-1,1.8117119E0,-2.738376E-1,3.4747347E-1],"categories":[],"categories_nodes":[],"categories_segments":[],"categories_sizes":[],"default_left":[1,1,1,1,1,1,1,0,0,0,0,0,0,0,0],"id":74,"left_children":[1,3,5,7,9,11,13,-1,-1,-1,-1,-1,-1,-1,-1],"loss_changes":[6.903636E2,1.7484132E3,2.9522063E3,3.972199E3,1.2486194E4,1.1665909E4,2.7166052E3,0E0,0E0,0E0,0E0,0E0,0E0,0E0,0E0],"parents":[2147483647,0,0,1,1,2,2,3,3,4,4,5,5,6,6],"right_children":[2,4,6,8,10,12,14,-1,-1,-1,-1,-1,-1,-1,-1],"split_conditions":[2.65E1,8.15E1,2.75E1,7.15E1,8.35E1,1.25E1,7.3E1,-1.9514253E-3,3.5986733E-2,-1.4842774E-1,-3.2134473E-3,-2.7655799E-2,1.811712E-1,-2.738376E-2,3.4747347E-2],"split_indices":[4,3,4,3,3,0,3,0,0,0,0,0,0,0,0],"split_type":[0,0,0,0,0,0,0,0,0,0,0,0,0,0,0],"sum_hessian":[3.5854E5,3.17481E5,4.1059E4,2.11213E5,1.06268E5,1.1121E4,2.9938E4,1.78571E5,3.2642E4,6.293E3,9.9975E4,6.644E3,4.477E3,1.863E4,1.1308E4],"tree_param":{"num_deleted":"0","num_feature":"7","num_nodes":"15","size_leaf_vector":"0"}},{"base_weights":[1.2636025E-4,5.722891E-2,-3.3119544E-2,-2.322529E-2,5.721642E-1,2.9251093E-1,-8.869349E-2,3.8592685E-2,-6.4611745E-1,-3.29279E-1,2.0685687E0,-1.5982674E-1,1.2024356E0,-6.57416E-1,-5.6835417E-2],"categories":[],"categories_nodes":[],"categories_segments":[],"categories_sizes":[],"default_left":[1,1,1,1,1,1,1,0,0,0,0,0,0,0,0],"id":75,"left_children":[1,3,5,7,9,11,13,-1,-1,-1,-1,-1,-1,-1,-1],"loss_changes":[6.8092737E2,5.467981E3,4.102428E3,4.395516E3,2.4058734E4,1.36029375E4,3.508537E3,0E0,0E0,0E0,0E0,0E0,0E0,0E0,0E0],"parents":[2147483647,0,0,1,1,2,2,3,3,4,4,5,5,6,6],"right_children":[2,4,6,8,10,12,14,-1,-1,-1,-1,-1,-1,-1,-1],"split_conditions":[5.65E1,5.25E1,5E-1,5.05E1,1.25E1,1.45E1,2.5E0,3.8592685E-3,-6.461175E-2,-3.29279E-2,2.0685688E-1,-1.5982674E-2,1.20243564E-1,-6.57416E-2,-5.6835418E-3],"split_indices":[3,3,1,3,0,0,2,0,0,0,0,0,0,0,0],"split_type":[0,0,0,0,0,0,0,0,0,0,0,0,0,0,0],"sum_hessian":[3.58678E5,1.31984E5,2.26694E5,1.1415E5,1.7834E4,3.3048E4,1.93646E5,1.03845E5,1.0305E4,1.113E4,6.704E3,2.2075E4,1.0973E4,1.0271E4,1.83375E5],"tree_param":{"num_deleted":"0","num_feature":"7","num_nodes":"15","size_leaf_vector":"0"}},{"base_weights":[-1.6144993E-3,7.5559174E-3,-1.9700526E-1,-5.002873E-2,4.6000734E-2,-1.6230997E-1,-2.2762673E0,1.0750122E-1,-1.895936E-1,1.8709047E-1,-2.0102842E-2,-2.4790478E-1,3.4689623E-1,-1.4862003E0,-3.0432792E0],"categories":[],"categories_nodes":[],"categories_segments":[],"categories_sizes":[],"default_left":[1,1,1,1,1,1,1,0,0,0,0,0,0,0,0],"id":76,"left_children":[1,3,5,7,9,11,13,-1,-1,-1,-1,-1,-1,-1,-1],"loss_changes":[6.4310706E2,7.589568E2,1.1603723E3,3.0175066E3,1.9173251E3,6.899121E2,1.5545874E2,0E0,0E0,0E0,0E0,0E0,0E0,0E0,0E0],"parents":[2147483647,0,0,1,1,2,2,3,3,4,4,5,5,6,6],"right_children":[2,4,6,8,10,12,14,-1,-1,-1,-1,-1,-1,-1,-1],"split_conditions":[2.25E1,1.25E1,1.95E1,9.5E0,1.75E1,5.5E0,5E-1,1.0750122E-2,-1.895936E-2,1.8709047E-2,-2.0102842E-3,-2.4790479E-2,3.4689624E-2,-1.4862004E-1,-3.0432793E-1],"split_indices":[0,4,5,5,4,1,1,0,0,0,0,0,0,0,0],"split_type":[0,0,0,0,0,0,0,0,0,0,0,0,0,0,0],"sum_hessian":[3.58912E5,3.42823E5,1.6089E4,1.37247E5,2.05576E5,1.5826E4,2.63E2,6.4474E4,7.2773E4,6.5587E4,1.39989E5,1.3549E4,2.277E3,1.31E2,1.32E2],"tree_param":{"num_deleted":"0","num_feature":"7","num_nodes":"15","size_leaf_vector":"0"}},{"base_weights":[3.3838136E-4,1.9297363E-2,-9.629088E-2,-1.1596803E-2,1.59423E-1,-3.73226E-1,1.2465177E-2,9.7261645E-2,-5.4253053E-2,-1.972627E0,2.1100801E-1,-4.2917725E-1,1.30884E0,6.4471173E-1,-1.0189268E-1],"categories":[],"categories_nodes":[],"categories_segments":[],"categories_sizes":[],"default_left":[1,1,1,1,1,1,1,0,0,0,0,0,0,0,0],"id":77,"left_children":[1,3,5,7,9,11,13,-1,-1,-1,-1,-1,-1,-1,-1],"loss_changes":[6.5673816E2,1.2973531E3,1.7709346E3,1.1402058E3,5.9545034E3,1.5609675E3,3.0526711E3,0E0,0E0,0E0,0E0,0E0,0E0,0E0,0E0],"parents":[2147483647,0,0,1,1,2,2,3,3,4,4,5,5,6,6],"right_children":[2,4,6,8,10,12,14,-1,-1,-1,-1,-1,-1,-1,-1],"split_conditions":[1.95E1,1.55E1,1.5E0,1.5E0,2.65E1,1.355E2,2.5E0,9.726165E-3,-5.4253056E-3,-1.972627E-1,2.1100802E-2,-4.2917725E-2,1.30884E-1,6.447118E-2,-1.0189268E-2],"split_indices":[0,0,1,1,3,3,1,0,0,0,0,0,0,0,0],"split_type":[0,0,0,0,0,0,0,0,0,0,0,0,0,0,0],"sum_hessian":[3.58481E5,2.99683E5,5.8798E4,2.45547E5,5.4136E4,1.6579E4,4.2219E4,6.9129E4,1.76418E5,1.278E3,5.2858E4,1.6046E4,5.33E2,6.466E3,3.5753E4],"tree_param":{"num_deleted":"0","num_feature":"7","num_nodes":"15","size_leaf_vector":"0"}},{"base_weights":[4.260272E-4,1.01927325E-1,-1.7073855E-2,-4.6052445E-2,1.0488093E0,1.4177285E-1,-4.481343E-2,4.0446695E-2,-7.7521694E-1,1.8205053E0,5.064005E-1,2.797552E-1,-1.03714764E-1,-1.1630769E0,-8.462455E-3],"categories":[],"categories_nodes":[],"categories_segments":[],"categories_sizes":[],"default_left":[1,1,1,1,1,1,1,0,0,0,0,0,0,0,0],"id":78,"left_children":[1,3,5,7,9,11,13,-1,-1,-1,-1,-1,-1,-1,-1],"loss_changes":[6.372761E2,7.392746E3,1.3484081E3,2.8780115E3,2.983934E3,1.5410793E3,1.0590119E4,0E0,0E0,0E0,0E0,0E0,0E0,0E0,0E0],"parents":[2147483647,0,0,1,1,2,2,3,3,4,4,5,5,6,6],"right_children":[2,4,6,8,10,12,14,-1,-1,-1,-1,-1,-1,-1,-1],"split_conditions":[3.95E1,3.75E1,6.5E0,3.65E1,1.5E0,4.5E0,7.5E0,4.0446697E-3,-7.75217E-2,1.8205053E-1,5.0640054E-2,2.797552E-2,-1.0371476E-2,-1.1630769E-1,-8.462455E-4],"split_indices":[3,3,4,3,1,1,4,0,0,0,0,0,0,0,0],"split_type":[0,0,0,0,0,0,0,0,0,0,0,0,0,0,0],"sum_hessian":[3.58772E5,5.2759E4,3.06013E5,4.5629E4,7.13E3,4.5494E4,2.60519E5,4.0791E4,4.838E3,2.942E3,4.188E3,2.9124E4,1.637E4,8.201E3,2.52318E5],"tree_param":{"num_deleted":"0","num_feature":"7","num_nodes":"15","size_leaf_vector":"0"}},{"base_weights":[6.7485386E-4,-1.4255556E-2,1.1631232E-1,8.941706E-3,-1.9803737E-1,-4.9905982E-2,4.3420422E-1,-1.690437E-2,2.518453E-1,4.1121945E-2,-7.139809E-1,1.9057672E-1,-1.0756516E0,-9.59409E-2,1.0619208E0],"categories":[],"categories_nodes":[],"categories_segments":[],"categories_sizes":[],"default_left":[1,1,1,1,1,1,1,0,0,0,0,0,0,0,0],"id":79,"left_children":[1,3,5,7,9,11,13,-1,-1,-1,-1,-1,-1,-1,-1],"loss_changes":[6.189797E2,1.3536556E3,2.1662278E3,1.7700092E3,4.3910825E3,6.640918E3,4.684326E3,0E0,0E0,0E0,0E0,0E0,0E0,0E0,0E0],"parents":[2147483647,0,0,1,1,2,2,3,3,4,4,5,5,6,6],"right_children":[2,4,6,8,10,12,14,-1,-1,-1,-1,-1,-1,-1,-1],"split_conditions":[2.65E1,2.35E1,2.5E0,1.105E2,1.55E1,5.85E1,1.25E1,-1.6904371E-3,2.518453E-2,4.1121948E-3,-7.1398094E-2,1.9057672E-2,-1.07565165E-1,-9.59409E-3,1.06192075E-1],"split_indices":[4,4,2,3,0,3,0,0,0,0,0,0,0,0,0],"split_type":[0,0,0,0,0,0,0,0,0,0,0,0,0,0,0],"sum_hessian":[3.58512E5,3.17517E5,4.0995E4,2.81932E5,3.5585E4,2.692E4,1.4075E4,2.54819E5,2.7113E4,2.4315E4,1.127E4,2.1808E4,5.112E3,7.631E3,6.444E3],"tree_param":{"num_deleted":"0","num_feature":"7","num_nodes":"15","size_leaf_vector":"0"}},{"base_weights":[-1.3854041E-3,3.797272E-2,-3.8968205E-2,-1.9392303E-1,1.21883735E-1,-5.9882873E-1,2.9813427E-2,3.2951593E-1,-8.8552326E-1,-1.2632701E-1,4.7224468E-1,3.6497808E-1,-1.7927316E0,3.746723E-1,-4.6184983E-2],"categories":[],"categories_nodes":[],"categories_segments":[],"categories_sizes":[],"default_left":[1,1,1,1,1,1,1,0,0,0,0,0,0,0,0],"id":80,"left_children":[1,3,5,7,9,11,13,-1,-1,-1,-1,-1,-1,-1,-1],"loss_changes":[5.311914E2,3.413297E3,7.073883E3,1.6872879E4,1.1201374E4,2.3128408E4,4.2877646E3,0E0,0E0,0E0,0E0,0E0,0E0,0E0,0E0],"parents":[2147483647,0,0,1,1,2,2,3,3,4,4,5,5,6,6],"right_children":[2,4,6,8,10,12,14,-1,-1,-1,-1,-1,-1,-1,-1],"split_conditions":[6.55E1,1.5E0,6.95E1,1.25E1,1.25E1,1.25E1,7.65E1,3.2951593E-2,-8.8552326E-2,-1.2632701E-2,4.722447E-2,3.649781E-2,-1.7927317E-1,3.746723E-2,-4.6184985E-3],"split_indices":[3,1,3,0,0,0,3,0,0,0,0,0,0,0,0],"split_type":[0,0,0,0,0,0,0,0,0,0,0,0,0,0,0],"sum_hessian":[3.59108E5,1.75411E5,1.83697E5,4.6607E4,1.28804E5,2.0098E4,1.63599E5,2.6529E4,2.0078E4,7.5393E4,5.3411E4,1.1121E4,8.977E3,2.9542E4,1.34057E5],"tree_param":{"num_deleted":"0","num_feature":"7","num_nodes":"15","size_leaf_vector":"0"}},{"base_weights":[-1.1067117E-3,1.3563524E-2,-1.0316373E-1,3.8680382E-2,-1.18442796E-1,-2.7671421E-2,-4.3448725E-1,-1.0013551E-2,2.1862708E-1,1.945313E-2,-3.4995544E-1,-2.9424208E-1,7.493183E-2,-5.046433E-1,1.0700487E0],"categories":[],"categories_nodes":[],"categories_segments":[],"categories_sizes":[],"default_left":[1,1,1,1,1,1,1,0,0,0,0,0,0,0,0],"id":81,"left_children":[1,3,5,7,9,11,13,-1,-1,-1,-1,-1,-1,-1,-1],"loss_changes":[5.370067E2,1.0397584E3,1.1274958E3,2.3085825E3,1.6003896E3,1.00418713E3,8.8348535E2,0E0,0E0,0E0,0E0,0E0,0E0,0E0,0E0],"parents":[2147483647,0,0,1,1,2,2,3,3,4,4,5,5,6,6],"right_children":[2,4,6,8,10,12,14,-1,-1,-1,-1,-1,-1,-1,-1],"split_conditions":[2.05E1,5.5E0,9.95E1,1.55E1,1.25E1,4.45E1,1.355E2,-1.0013551E-3,2.1862708E-2,1.9453131E-3,-3.4995545E-2,-2.942421E-2,7.493183E-3,-5.0464332E-2,1.0700487E-1],"split_indices":[0,1,3,0,0,3,3,0,0,0,0,0,0,0,0],"split_type":[0,0,0,0,0,0,0,0,0,0,0,0,0,0,0],"sum_hessian":[3.58672E5,3.13595E5,4.5077E4,2.63466E5,5.0129E4,3.6713E4,8.364E3,2.07356E5,5.611E4,3.1417E4,1.8712E4,1.0203E4,2.651E4,7.992E3,3.72E2],"tree_param":{"num_deleted":"0","num_feature":"7","num_nodes":"15","size_leaf_vector":"0"}},{"base_weights":[1.1891334E-3,-1.3349603E-2,1.1365228E-1,-2.1915834E-1,6.808274E-3,4.7198987E-1,-1.9449359E-2,-6.2736166E-1,-9.4945945E-2,1.693161E0,-1.0554554E-2,-2.5093985E-1,1.5338185E0,-2.0046848E-1,2.7821264E-1],"categories":[],"categories_nodes":[],"categories_segments":[],"categories_sizes":[],"default_left":[1,1,1,1,1,1,1,0,0,0,0,0,0,0,0],"id":82,"left_children":[1,3,5,7,9,11,13,-1,-1,-1,-1,-1,-1,-1,-1],"loss_changes":[5.866326E2,1.3180704E3,1.9589514E3,1.4369908E3,8.472671E3,8.539473E3,1.6137833E3,0E0,0E0,0E0,0E0,0E0,0E0,0E0,0E0],"parents":[2147483647,0,0,1,1,2,2,3,3,4,4,5,5,6,6],"right_children":[2,4,6,8,10,12,14,-1,-1,-1,-1,-1,-1,-1,-1],"split_conditions":[2.65E1,3.75E1,2.75E1,2.5E0,3.85E1,1.25E1,7.3E1,-6.273617E-2,-9.494594E-3,1.693161E-1,-1.0554554E-3,-2.5093986E-2,1.5338185E-1,-2.0046849E-2,2.7821263E-2],"split_indices":[4,3,4,1,3,0,3,0,0,0,0,0,0,0,0],"split_type":[0,0,0,0,0,0,0,0,0,0,0,0,0,0,0],"sum_hessian":[3.58779E5,3.17708E5,4.1071E4,2.8341E4,2.89367E5,1.1123E4,2.9948E4,6.611E3,2.173E4,2.948E3,2.86419E5,6.618E3,4.505E3,1.8623E4,1.1325E4],"tree_param":{"num_deleted":"0","num_feature":"7","num_nodes":"15","size_leaf_vector":"0"}},{"base_weights":[1.7353885E-3,1.0771061E-1,-1.0552588E-2,-5.6301046E-2,3.6760902E-1,-1.5649892E-1,8.269084E-3,-1.4103843E-1,1.5443945E-1,1.0735083E0,-2.2858481E-1,2.7291432E-1,-6.735944E-1,-4.757569E-2,7.0121564E-2],"categories":[],"categories_nodes":[],"categories_segments":[],"categories_sizes":[],"default_left":[1,1,1,1,1,1,1,0,0,0,0,0,0,0,0],"id":83,"left_children":[1,3,5,7,9,11,13,-1,-1,-1,-1,-1,-1,-1,-1],"loss_changes":[4.6726666E2,1.5892598E3,8.8325684E2,4.0822867E2,6.071047E3,8.155994E3,9.837798E2,0E0,0E0,0E0,0E0,0E0,0E0,0E0,0E0],"parents":[2147483647,0,0,1,1,2,2,3,3,4,4,5,5,6,6],"right_children":[2,4,6,8,10,12,14,-1,-1,-1,-1,-1,-1,-1,-1],"split_conditions":[4.5E0,1.35E1,7.5E0,3.5E0,1.85E1,1.25E1,1.15E1,-1.4103844E-2,1.5443945E-2,1.07350826E-1,-2.2858482E-2,2.7291432E-2,-6.735944E-2,-4.757569E-3,7.0121563E-3],"split_indices":[4,0,4,2,0,0,0,0,0,0,0,0,0,0,0],"split_type":[0,0,0,0,0,0,0,0,0,0,0,0,0,0,0],"sum_hessian":[3.58821E5,3.7282E4,3.21539E5,2.2858E4,1.4424E4,3.6729E4,2.8481E5,1.6303E4,6.555E3,6.604E3,7.82E3,2.0066E4,1.6663E4,1.49674E5,1.35136E5],"tree_param":{"num_deleted":"0","num_feature":"7","num_nodes":"15","size_leaf_vector":"0"}},{"base_weights":[-1.9662473E-3,9.052335E-2,-1.7871039E-2,-3.2842353E-2,8.8227665E-1,-1.3964649E-1,1.2790178E-2,-1.9200924E-1,2.27242E-1,1.1277767E0,-1.0454785E0,7.61985E-2,-4.3258896E-1,7.389413E-1,-2.7564147E-2],"categories":[],"categories_nodes":[],"categories_segments":[],"categories_sizes":[],"default_left":[1,1,1,1,1,1,1,0,0,0,0,0,0,0,0],"id":84,"left_children":[1,3,5,7,9,11,13,-1,-1,-1,-1,-1,-1,-1,-1],"loss_changes":[5.276343E2,5.140675E3,1.1427411E3,1.885089E3,3.3589873E3,3.892482E3,7.1645405E3,0E0,0E0,0E0,0E0,0E0,0E0,0E0,0E0],"parents":[2147483647,0,0,1,1,2,2,3,3,4,4,5,5,6,6],"right_children":[2,4,6,8,10,12,14,-1,-1,-1,-1,-1,-1,-1,-1],"split_conditions":[3.95E1,3.75E1,5.25E1,2.65E1,2.15E1,1.25E1,5.55E1,-1.9200925E-2,2.27242E-2,1.1277767E-1,-1.0454785E-1,7.6198503E-3,-4.3258898E-2,7.3894136E-2,-2.7564147E-3],"split_indices":[3,3,3,4,0,0,3,0,0,0,0,0,0,0,0],"split_type":[0,0,0,0,0,0,0,0,0,0,0,0,0,0,0],"sum_hessian":[3.58682E5,5.2629E4,3.06053E5,4.5535E4,7.094E3,6.1559E4,2.44494E5,2.8248E4,1.7287E4,6.293E3,8.01E2,3.5444E4,2.6115E4,1.2871E4,2.31623E5],"tree_param":{"num_deleted":"0","num_feature":"7","num_nodes":"15","size_leaf_vector":"0"}},{"base_weights":[9.314103E-4,8.3847225E-2,-1.3371554E-2,-3.0152226E-2,8.13253E-1,1.21605426E-1,-3.691549E-2,-1.798975E-1,2.1432033E-1,1.9684936E-1,1.6933129E0,-4.9244463E-2,5.038302E-1,-9.953561E-1,-5.865811E-3],"categories":[],"categories_nodes":[],"categories_segments":[],"categories_sizes":[],"default_left":[1,1,1,1,1,1,1,0,0,0,0,0,0,0,0],"id":85,"left_children":[1,3,5,7,9,11,